[{"layer_type": "Dense", "num_input_units": 784, "num_output_units": 128, "activation_function": "softplus", "weights": [[-0.05716237929293235, -0.0024943905761942134, 0.002329199947014623, -0.03966374607575165, -0.19009193795569582, 0.19020423135152265, 0.027818357049185893, 0.026772139092802523, -0.07746129359453693, 0.08249630946781909, -0.20112990412879334, 0.1349918381753456, 0.002451352416050706, -0.11422672218468319, 0.09974627894515238, 0.010798730133281486, -0.03340004683534311, 0.1542842293392892, -0.04270703100751789, -0.016570679406215812, -0.17187968067865847, 0.059336322651055914, 0.035686369057936325, 0.19782668296740424, -0.05783954447837481, 0.013556709882146675, 0.0846177877290693, 0.07338185986989229, 0.025518179593273467, 0.06281141909639858, 0.16324375245710254, 0.014641848470038958, 0.0903294459027263, 0.09806635798026334, 0.007917628843517275, -0.13380653988148736, 0.026917128858060368, -0.17887649500872746, -0.011260313967763932, 0.15737448620100872, -0.06107643618594453, 0.022949832183509083, 0.0045201616222460585, -0.13335607629353285, 0.11826847449524966, -0.04070989829116714, -0.049421187625186325, -0.023071693006657824, -0.013365613688561073, 0.10714401603215051, -0.044655489814910285, 0.06733507400691256, -0.13196374389770307, -0.1903588701225029, -0.03944797097877187, -0.011475947012892942, 0.02435122883551098, -0.05227700404494454, 0.17406287387239786, -0.010064097276846377, -0.07182034911415314, -0.004148095376080104, 0.01754590329745938, 0.1258098205838761, -0.01767794449929739, 0.010362791222378617, -0.026475131851961153, 0.03969490157945305, 0.037963788196851124, 0.23975434168803975, -0.07425022004413118, 0.14063168699103593, -0.0202875455562566, 0.05306276332009503, 0.07801607779237212, 0.10017097083527228, -0.10062976461905043, -0.03759409843948534, -0.10717750712193806, 0.028670552346661455, 0.06164901788218796, -0.048171974512935554, -0.16075644784709778, -0.06965448774582807, -0.026737066094174814, 0.1622568265611134, 0.14324570903404316, -0.024832410492186503, 0.04443029529805099, 0.10919366643362476, 0.008440924761451666, 0.12531530994587906, -0.029248002901618615, 0.10885498258257696, -0.06832830930059085, 0.021233108534636058, -0.008000568888096178, -0.08215575969530121, 0.11447652555551349, -0.16341278036603848, 0.1525549063740598, 0.1501096985933479, -0.11852162753909166, -0.03811590981891196, 0.045321253188148246, -0.038269184461635304, -0.005825585318215517, -0.04374667505730926, -0.051460381147789634, -0.13656433063804596, 0.12388330232789076, -0.11424328132183113, 0.010358801609636467, 0.011510776730662363, -0.0038035834901877347, 0.1545571772398614, 0.06944665120945974, -0.12390062047110047, -0.06559643840792459, -0.05636161749422919, -0.06145798574618928, -0.1751604293992056, -0.06121469844182155, -0.11296603264332984, 0.1018948201631812, 0.1060378609082783, -0.13369986092873148, 0.017425036681191886], [0.00020958885078723268, 0.02793109167379437, 0.007560078110567068, 0.006979894890087645, 0.10698460748232753, -0.0676826409143368, 0.09477077606654771, 0.16265366948886625, 0.16535469792467608, -0.07498795283940318, 0.006814983527305521, 0.048158123441237335, -0.02903195463735289, -0.032772326725142, 0.039274892552235846, 0.10816050452324372, 0.10801901173519587, -0.06469644559721219, 0.029674577397774887, -0.08209274251245925, -0.041974014208377534, -0.07252531550072798, 0.1900966459127325, -0.02532677524862184, -0.09028597584100657, 0.11129936339989625, -0.1817286100051241, -0.03887419512358669, 0.17859048968868993, 0.09032590640021601, -0.059832429853363664, 0.011553387798521731, 0.04582288033169026, 0.14284399350313062, 0.02750326875904239, -0.01588651710290924, -0.0176326700320927, 0.08365867461133847, -0.00945671869584186, 0.08709844422613754, 0.0759341864490876, 0.05182521857667088, 0.04090773595330278, -0.12217970398918586, 0.1133924725039488, -0.035536290299958175, -0.11091038545472148, -0.008866517941702678, 0.01203025869519682, -0.015075907219006177, -0.053563418921415695, -0.045175359081799184, 0.020638942038293136, -0.15268635902651734, 0.01524473118752308, -0.11613037095044178, 0.08697746052603512, 0.016706662065638058, -0.02400366816616551, -0.029284433117972696, 0.09511279396042584, -0.005204901369488709, 0.018951500842285918, -0.07475324864662261, -0.13424962942326849, 0.16554205725992385, 0.015209808868431166, 0.026616578578967796, 0.10175418282651263, 0.11338478209002757, -0.00839510822487138, 0.05938197157113, -0.06915376630063308, 0.07834395752446857, 0.0683718106735, 0.0023714159092908826, -0.11825059324332167, 0.051365426985578354, -0.03408153641164103, 0.04901955908269573, -0.07075584477523587, 0.04757554322236101, 0.09875406988279613, -0.044625479166832335, -0.029295489381760593, -0.10033267332437326, 0.11440025234336315, -0.01969916845547581, 0.07879361812493435, 0.11188538362738701, 0.07499509802370827, 0.031490128504589064, 0.050032890717682424, -0.11373079509249026, 0.0626425122371766, -0.13060184852581663, -0.000877453457852733, 0.010171014007575042, -0.10655428181713901, 0.05082320082999592, -0.1216768185131431, -0.012740291779096477, 0.17670805214740642, -0.07761798552978744, -0.026491219336386734, -0.03185263850903201, 0.06176164781332283, 0.10512569249383227, 0.01195188715827186, -0.15911022872663014, 0.11046019300651502, 0.20552607954310606, 0.01590973786661265, 0.13601567688884517, 0.050227555394955714, -0.058631967532220115, 0.04332124023563579, 0.17813872731077846, 0.12881833629584874, -0.0595056518644746, -0.0891812976321724, -0.25770608171344606, -0.12509070510696738, 0.04226706277961124, -0.0721566636563254, 0.13250772513124603, 0.04616011683422077, 0.05273876345807497], [-0.1075453562197955, -0.02682270058649433, -0.13284311421955755, -0.0016060278966484101, -0.014835131473824923, 0.25358116751092624, -0.1482986311073624, 0.0016766107074541764, -0.12376159842194442, 0.05227787257280431, -0.11961915355281935, 0.0903965029936995, -0.06492172372940185, -0.00021341335485852649, -0.056487600015303716, -0.11298529086026476, 0.03186678219462829, -0.04497491292652719, 0.02670623367475683, -0.13484895494921106, 0.16748818114373357, -0.1510887527881435, 0.10166030089981959, 0.07626190909378221, 0.13825783847135642, 0.05665867983551603, -0.11656582866438378, 0.06699143973903982, -0.009781724103907983, -0.07017954517640922, -0.0006326473784603431, -0.06986020721657249, 0.10568490380144796, -0.0060015768102187755, 0.018190597593343974, -0.01372796058579888, -0.19886711667892817, 0.06903632037569035, 0.07211636959724413, -0.10330238767398618, -0.02752394190239628, 0.04711832874145535, -0.05790495846924068, -0.02724042481001038, 0.16680994411862735, -0.0070526467180176125, 0.014668047264925885, -0.0666570807943759, 0.1592841118452149, 0.01868175611585484, 0.11447575251627606, 0.12258433488787497, 0.0657100475505989, 0.034435326680753095, -0.1513635774919729, -0.009351426417238762, -0.1001744370997432, -0.059900074880100226, -0.030265331677078986, -0.07101973398162441, 0.06836915534186991, 8.27338837538523e-05, -0.049563176111701725, 0.0003235006307398004, -0.06742667004814411, 0.08515716237041945, -0.029738899361482857, 0.04888006277948724, -0.0757017807926476, 0.04538457161642602, -0.09289561366165994, -0.005351354168523361, -0.11606846348882287, -0.020342605201643906, 0.013489151973359325, 0.11038746737860859, -0.03148234280346335, 0.08291927887412076, -0.022610320452669846, 0.09722814549089483, -0.1397386205139324, -0.1577448029311027, -0.15975539367394298, 0.07183198772953552, 0.024807353978033974, -0.14015877723823023, -0.020277953308809098, -0.04240987591031468, -0.1194321586377934, -0.20798281933798501, -0.0979790940716062, -0.0657002827164691, 0.08723624024960194, 0.05151186516033626, 0.13878247556094864, -0.009782962014885613, 0.004516642553747082, 0.051510207315783686, 0.04545694868761239, -0.1971424469017896, 0.10228110292483175, -0.12756125679763713, -0.11677926161410214, 0.05579903332145187, 0.1350809564380291, -0.01673538496317806, -0.09472626192849129, 0.07232716819212708, -0.044127600908160654, -0.1291037525837232, 0.06881245153404458, -0.038261973183454714, 0.14642483028814193, 0.006033308893337638, 0.020751122805942122, 0.12101331899081606, -0.00036581694257708624, 0.04076046602596878, 0.056846792683818016, 0.016849230586476794, -0.16738520719209957, 0.16821673555480024, 0.11070293932503812, -0.03911918530637762, 0.001475112370427688, -0.09263272392744952, -0.13709972769351697, -0.06228601393064461], [-0.06827081675229149, -0.03629637127611308, -0.10079070526552449, 0.04529759260735826, 0.18643404534535146, -0.1006423812552022, -0.0790216053903728, -0.01583961892329408, 0.14346965519303442, -0.0017897415965368799, 0.08161252354119806, -0.03771862381733802, 0.08939739480386728, -0.1174283997294389, -0.09466984370766207, -0.07571837075194347, -0.11027163446622817, 0.2747167768493431, 0.02186073054433612, 0.12996062076325604, -0.08586057874804273, 0.12627660694145287, -0.1560245596287238, -0.13364394686158984, 0.011497809136968209, 0.0434261613661522, -0.08518849468677582, 0.02615588758855892, -0.06536548460410167, 0.003884426366297877, -0.011120021559179733, 0.10019119094010988, 0.08934042224009717, 0.08854798417570969, 0.011817103926296169, -0.18566297694190728, -0.12210976881630821, -0.026830481299108727, 0.05298523489495839, 0.07225222214427213, 0.09749994132067576, 0.016228754565353182, -0.04622731231983808, -0.171630246647187, -0.055636743737551606, -0.16371341782101903, -0.10335487246356721, 0.051058503475810375, 0.06733901791277895, 0.06742248683435828, -0.17150796661592446, 0.051158939693249916, 0.04296246827173028, -0.04877299351377795, -0.09298411384457515, 0.03916948777897678, -0.001844650492858325, -0.01790028922221425, 0.11666790460134527, -0.07735827743276506, 0.19320363098840534, 0.013700610993382097, 0.14478543335350594, -0.069824287894358, 0.13844506387404412, 0.06970915198440589, -0.06440521078824633, -0.20471962664050736, -0.056699011116168825, -0.0004146897887047975, 0.11244808848096, -0.00413254772628799, -0.05307040026843165, -0.054523010448845464, 0.13020285575338789, 0.16298062008363173, 0.029521421808992768, -0.04617543325578534, -0.041731102556252044, 0.12653681559949018, -0.06903312163334151, 4.424801567842552e-05, 0.017718252279819244, 0.14688415453919126, 0.025969163161932592, -0.18711943179619386, 0.028428291197399064, 0.21309311218521884, -0.09129686507962254, -0.059899261401969855, 0.07909477130155071, -0.14954844249079594, -0.1207232110218889, -0.1321258353241323, 0.1272778352184661, -0.03225365647765554, -0.0207712272294996, 0.11790434340439764, 0.19205678553950317, -0.04297299675160404, -0.03104138476343621, 0.02511340265362125, 0.20460482763969548, -0.003720457586994359, 0.014169359515939383, -0.046345174352078446, -0.1011188581266012, 0.14301866050711523, -0.1277994232029102, -0.06585213531384192, 0.0747131042579178, 0.11449871715250044, 0.015799047608527957, -0.11298835207412708, 0.19026665465835915, -0.12726684889419027, 0.029585086203635765, -0.001121131796652913, -0.015901924257956043, -0.16575829568526437, -0.16169181596330934, -0.16656082063743868, -0.03251764201690574, 0.008542948099835343, 0.06225975384726797, 0.05738856952655508, 0.04260476065321997, -0.08756665638412527], [0.14941318549062138, 0.15625700595892747, -0.006493028018205473, -0.13133520419191602, -0.18379350878779876, 0.07353311642163546, -0.008694943271144041, 0.029441740682443387, 0.05245615196831908, 0.07932464125743302, -0.023412613905306946, 0.2757513827915052, 0.04655692446273922, 0.05941122845521801, 0.14381038116997769, 0.14100802317915237, -0.06348112494701837, 0.01620860098386996, 0.1127595129299735, 0.0023841686963814363, 0.015250978981911521, 0.00857928805179904, -0.06048580427770571, 0.1049934187822574, -0.258476120162627, 0.007974908580101182, 0.1617327075960133, -0.17583102874752685, 0.0599030291434657, 0.019716217097354563, 0.002829132875094443, 0.11234670945192934, -0.02015875074939207, -0.20355979216141348, -0.0376945956800208, 0.09763371513439661, -0.052542226297915065, 0.16058967873462707, 0.14573283303392745, -0.0803606219114769, -0.16865840829836112, -0.03997422666569399, -0.18672492489612622, 0.04487333081568986, -0.16578721630176035, 0.10701363925382444, 0.05732029002213545, -0.07005190450857054, 0.036100240821737156, -0.01667185369467711, -0.03248005200817163, -0.02577376090273482, 0.06541414144570065, -0.0418430713752686, -0.10251957856113038, 0.01999965223829933, 0.03628999939628548, -0.02310529461317405, -0.059806271458405794, -0.024793232096548132, 0.04549116768146507, -0.011600030057680217, -0.054049926471741755, 0.14820807709906314, 0.11037613196192095, 0.17667237927799986, -0.10524516481761549, 0.03404656613136492, -0.01341778913055361, 0.129560119997577, 0.07524537959236842, -0.07841432897341186, -0.006884149519119051, -0.14318639565654295, 0.07363884271106035, -0.0548891624605336, -0.03666801129319084, -0.013575035143835963, -0.22669917774811282, 0.1765454330922813, 0.01891664750365258, -0.11142472854437452, -0.016931100901035896, 0.04161618516704865, 0.12644886573912073, -0.14218599923863998, -0.1144947820185387, -0.05601231537963411, -0.026885886251442514, 0.006198483822472274, -0.10638970559511386, 0.044636577019779945, 0.02024016707781617, -0.011665596102505065, -0.07037916969830271, 0.060676216442129, 0.1807456477983236, 0.12533623435427482, -0.09549217152428445, 0.005635464040264664, -0.06869498862222036, 0.032403330130746234, -0.021430765933899826, -0.0304748841912947, -0.0835722839712705, 0.15684516922354663, 0.021141812699309957, 0.026143418852253554, 0.1086560613638624, 0.07169091489178567, 0.11845692800858114, 0.042553085338324415, -0.09380171530576319, -0.12453298895429424, -0.008421778458974656, -0.15404924683490484, -0.23501968400507378, -0.16752171053211884, 0.14273481945550226, 0.15131362803258314, 0.03370618087584029, -0.062443633761589956, 0.05199773960320076, 0.13425390221928873, -0.007107000321160788, 0.10223001037465758, -0.3088776375448471, -0.19646433272637637], [0.12750425049041778, 0.02653381973888351, 0.03940110711959024, 0.16147215460301825, 0.04650813300580782, -0.10037263052671642, 0.0035759920988120276, 0.23187693361268236, 0.0735981201825973, 0.12100857160985129, -0.0649779206443523, -0.05352011259145732, -0.06476884715845112, 0.16337071609081397, 0.006439642599796536, 0.017603457532343523, -0.0013003566629438436, 0.07513098794898812, 0.10139938499677242, -0.09577582397397838, 0.033208483460475446, 0.1447412853483844, 0.09701610469019664, 0.0701335842837748, -0.04560589807059722, 0.11672544185736773, -0.03524975338170149, -0.042395926895530046, -0.09284903247175957, 0.08908252675857453, 0.10037429804672009, -0.050277798165078866, 0.04447341955763847, 0.023220517755457384, 0.08789783958232852, 0.2262700273651136, -0.08479419273283204, 0.16418042962635282, 0.07514348371117927, -0.06421598083954148, 0.0660396267762958, 0.08606500686602175, 0.02227742602318044, 0.003415386315753058, -0.057909445713142355, 0.10903650084333794, 0.017302642632078424, 0.20706786994647156, -0.07752230281269584, -0.32353866710225543, -0.04621192124696903, 0.1796978641848714, 0.03397500111981299, 0.11121553137833044, 0.10222431643405559, 0.08521324939307941, 0.20100971024771647, -0.18219974791100083, 0.0763198321503989, -0.06032958218894588, 0.008578989017404668, 0.09672393023503091, 0.09009360256540261, -0.047748522685412624, 0.03383607359726982, 0.06529343424088327, 0.15435501565465845, 0.03082677607549895, 0.16689891988101915, 0.030758240618455383, 0.07759624999668835, -0.09036282508674658, -0.09981164374970611, 0.026425641957240092, 0.07534429417125207, -0.021590490050138564, -0.20189381205664045, 0.10247380434698025, 0.036385273736318384, -0.008913305696884666, 0.15883505808599704, -0.006027977747165958, 0.07124996110334096, -0.007859304630053684, -0.10214916870403032, -0.07318104649950004, -0.07171156414018176, -0.1179507950433234, 0.07026432436596902, -0.00910655678955367, 0.0365368824246868, -0.015362006871945789, 0.11700801098154232, -0.17518754442219797, -0.03666198724492099, -0.020436987519995606, 0.17872830840419524, 0.18361261783913682, 0.06365517133528516, 0.023458136267259077, 0.0757417163765755, 0.01844858261350159, 0.05695803804932066, -0.1012624664699751, -0.1039226772343403, 0.1240457401426359, 0.0396465110446036, -0.01613392270332707, -0.20044784656512427, -0.044312921141955335, -0.02197388532753756, 0.05892505583115421, 0.05965772735444836, 0.12370825247742413, -0.004034994662506271, -0.0851839064768927, -0.1296517054554437, -0.12480506992931358, 0.17022378895676857, 0.08147230881468827, 0.0012494240829395004, -0.196730552181274, -0.23506241046232632, -0.040923529497710776, 0.026467919255717648, 0.03342734910401359, -0.20634394379113757, 0.10270373804048524], [0.08150247558508375, 0.08207389405761954, -0.06666506628601732, 0.1465740072526841, 0.0091899648393209, -0.16987260309743402, -0.11635355733637978, 0.011502027821497387, 0.062190068934241775, 0.022828266042925156, -0.011970807169133771, -0.021658465455944437, 0.060806468247732996, 0.051793071883387755, 0.12470657474155901, -0.14671899040521202, 0.12818334189587582, -0.13481967332745087, -0.06314690958162339, -0.052274232790020955, 0.07032961662666978, -0.00605179129006823, -0.07690360362812897, 0.07368325616735114, 0.17575183766808009, 0.038207362071902166, -0.025003514585660046, -0.10730346402142017, 0.08096873760811966, 0.2050055826827414, -0.15242560559331958, 0.029617811527177785, -0.027257730304083825, 0.09308097754651647, -0.07860847493766167, -0.03917434926321431, -0.009895315723556916, 0.09463763733884738, 0.1573665863256108, -0.011733873328350896, -0.07748890537800344, -0.0718292806597073, 0.059880671240206566, -0.028380670499157316, -0.10262488919965204, 0.11035840857251947, -0.12410817129399923, 0.10690243347582332, -0.028847464980621084, 0.05317850638118422, -0.06206127630058263, 0.0004064215975280011, 0.010314041352653656, -0.11595266935497191, -0.06268278608082255, -0.05964687312654542, -0.07538985897850384, -0.010776994719400997, 0.14990526662255846, -0.08406045315406285, -0.09632169786459084, -0.1783815398557056, -0.07138519194647498, 0.010448304367043094, 0.11027870911111035, 0.01715596595118363, 0.02530676753645199, -0.018257670327968104, -0.07486575772418652, -0.1406986171071861, -0.11722709162731702, -0.020473111071483554, -0.05708460518536952, -0.0859923809100376, 0.07435239710487516, 0.052423519031071404, 0.011213858212359465, -0.038888825968617466, -0.10257383760453134, 0.07273274687227094, -0.04555366496127464, 0.023389420500667734, 0.012158876805242082, -0.07898966612779688, -0.06569921710971457, 0.00367095078687732, 0.03241921318515089, -0.07136233155162285, -0.1991938749458109, -0.07647390948131867, 0.09598480485100966, 0.1099888706881549, 0.006997570961081961, -0.026039711806374627, 0.12008435228798393, 0.0035192963331586707, 0.22472601857904106, -0.06050621518534453, 0.04222478850817969, 0.14215479513288953, 0.12162009779801888, 0.03661876181400284, 0.08577865129274849, 0.10945633643579883, -0.02309358677813557, 0.026108082719248568, -0.06781207881619793, -0.023132114544073927, -0.12661771572787667, -0.03634552713724804, -0.07623289881840947, 0.08019132851445661, 0.137822681369245, -0.04482697888864438, 0.08942114867644085, 0.045529541264642814, -0.09720110782554058, 0.043228477136157996, 0.01394277430860808, 0.22065319994730725, 0.09397906241314434, 0.13436403298425373, -0.10012716098530886, 0.1349334742127298, 0.0838760416424554, -0.15372668300195472, -0.12601722481116834, -0.15016915687988008], [0.20938041096823093, 0.05219415986351837, -0.129468007284302, -0.05509517632155253, -0.005071245640168042, 0.14868117262268288, 0.008600164599890704, 0.030123235494129062, -0.10167784845087481, -0.13279958301749972, -0.07404132326499636, 0.08032558876409994, 0.12360516073086297, -0.2499323526772813, -0.06743485493094975, 0.10107871011864539, 0.018294011256525744, 0.06616263981313615, -0.0609452256091403, -0.06005901161659294, 0.24828518049094092, -0.23728891374671782, -0.07899647404892607, -0.047245617467745846, 0.004419326925451447, -0.12456198759717324, -0.014850492288716719, -0.01982682286586256, -0.060593659750557735, 0.09624846791529196, -0.21420823661252325, -0.11734668876827645, -0.12316268002556591, 0.04358866922411484, -0.06157730073338267, -0.00598446090955015, -0.010145883769176101, 0.08923521465648751, 0.06782963378792396, 0.02247195619118574, -0.029667510940612693, 0.04007839093902876, -0.03511333775692915, -0.1402721217887889, -0.14381404098990105, -0.11492560960609506, -0.07526726260725211, 0.03471836928366995, 0.03767165548894193, 0.0018121833330395681, 0.15524257939363742, -0.025434537112954327, -0.07901498837857016, 0.0747271368900476, -0.1005883576678801, 0.020355706914965733, 0.10815377557402588, 0.10787617583939102, 0.008299126951770699, 0.09105522507542055, -0.20840539827882462, -0.03609833725513455, 0.08910132426221334, -0.09395688604404442, -0.17102338388445945, -0.15461247672737338, 0.12110157267028186, -0.1785159511112152, 0.024891313700004063, -0.016826605308225204, 0.009406721777115531, -0.04516657750457789, -0.13611665279549195, 0.010295538807299888, -0.12081179989302838, -0.11655000545872353, 0.022025833600984878, -0.07871258889685964, 0.059043492115705136, -0.0691228575687892, 0.04741391265096148, 0.0012291153687435234, -0.18375104310598395, 0.08574442818095757, -0.15512628378339016, 0.08230729214539376, -0.011472425919406996, 0.06749107196865002, 0.0867360998967007, 0.09120910901434301, 0.1043454280398375, -0.0036248282066741284, -0.13557851721848757, -0.07733840193895966, 0.04800246523048468, 0.030447273405213762, -0.013123897597514188, 0.039707423226454694, -0.06096860158915747, 0.07236679291922235, 0.03323985187894096, -0.03076534592904783, -0.07406804162694353, 0.07917921001796287, 0.020809369280364524, -0.24316000482819977, 0.13605793943935657, 0.08752444815976082, 0.01059745424726006, 0.09929636153430622, -0.05058743709873599, 0.034819896016608315, 0.050171024806979686, -0.011867541283552488, 0.07549592486135451, -0.04869896117081112, -0.2133959572044302, -0.02131497589819688, -0.11572646480035309, -0.1263943127121029, 0.08644541457048997, -0.05342953169468422, -0.11565282049590284, 0.03476757708144432, 0.1331489869759144, -0.007333105965623084, -0.21171876962534264, 0.08452754184127251], [0.02710632479918185, 0.10988977067152254, -0.13447560728168112, 0.09231511452006883, 0.08676340107114662, -0.03910641908752559, 0.008470951459425257, -0.03424664057565562, 0.0003248048190463302, 0.13145294000474772, 0.044487083086684684, -0.07529669725254809, -0.004451665647324343, 0.001272060564889317, -0.2710685130409707, -0.06178352037890258, -0.02543574402867431, 0.05866352807595428, 0.07069661786401257, -0.019028833258980426, 0.1368810940026952, 0.07929251597872461, 0.018678457313558692, 0.05871353007196726, -0.11233969789999965, 0.10873962921596413, 0.011220001112966612, 0.014121209235280544, 0.05045175033690506, 0.06555733132582542, -0.14675415718687715, 0.016028256253592176, 0.05791429197612004, 0.013064051985953163, -0.09835634403310786, -0.036490592199925, 0.020847453020990017, 0.06676113077798458, -0.08318229484516607, 0.07187609488688848, 0.06743058826138107, -0.10565716505901097, 0.08644647505232207, -0.0384081690244294, -0.10106223717714337, -0.1788041525434009, 0.14928589807561674, 0.053678379264218985, -0.06572707227503961, 0.2325228872462594, -0.18149633304691978, 0.11769571537516317, 0.12564900602839768, -0.03064438587558145, -0.007614377929242019, -0.11932844484481749, 0.03347354024988131, -0.049737885155603, 0.08948106317271569, -0.0629966151866485, -0.0484831257537066, -0.06294717933076491, 0.19172857775710997, -0.12362564537146445, -0.023921456903201042, 0.11588830205378373, -0.07774122265026132, 0.03767435495773024, 0.02259515396626659, 0.03192791576819824, -0.08727033458363022, 0.18429314773156666, 0.03167353623153968, 0.18578603189963644, -0.046794533350447344, 0.02710192641071876, 0.05128861243083505, -0.16823510643227124, -0.1592704025086717, -0.12593349069598028, -0.06892135470818189, 0.015803529984918765, 0.02598359249865581, 0.07757045048446073, 0.07601052655127077, -0.1781026524736398, 2.043258137485521e-05, -0.07060314988731768, -0.09905355847613323, 0.0905188469284712, -0.14473930822004052, -0.05388963594692478, -0.0003127651147943666, -0.030647946206787836, -0.008860289816097136, 0.01252256343467909, -0.0700659196272077, 0.10248876562136641, -0.08804470329741124, 0.20707343962149202, 0.004455496397592106, 0.1090540928114391, 0.09357931837869467, 0.011169946922911555, -0.08683153977544202, 0.07338141529448672, 0.10625855406706858, -0.10369388860360705, -0.00536962130448756, 0.17335430253407055, 0.09392019520362789, -0.016817043063981827, -0.12437346192163264, 0.021751238745314063, 0.027383757393831528, -0.07257956922237045, -0.13859436932054395, 0.07414479805004916, 0.07229802614861189, 0.04102554897739659, -0.004502302857838953, -0.007362131154993247, -0.16646423561625637, -0.08138664646648326, -0.01205719845739491, -0.18895019696155063, -0.00509455188525085, -0.06950152262459025], [-0.012349797638419728, 0.08018359260432337, 0.010076776757701428, 0.013082876631585989, 0.01616153281760834, -0.13499478819365573, -0.10051541662918564, -0.003910417980470462, -0.15254473844047692, -0.07493135228877448, -0.14031909990773048, 0.005129197876949397, 0.009823590402281722, 0.10925932698481623, -0.05593738092905638, -0.004468907959537145, -0.08143425166002458, 0.05420911305729784, -0.1906874088250982, -0.13169889970484402, 0.0985823370361828, 0.06394741891796696, 0.1907227541007759, 0.11586617933196934, 0.1224931508770866, -0.013449754271676705, -0.1115207602513837, -0.017206142522861286, -0.24104492717163528, 0.01309658749523775, 0.018352324964280502, 0.08670870091605291, -0.012031472617702082, 0.07508028604440181, -0.09926456960138705, 0.04849783221381588, -0.061075657328951746, 0.05989584943562626, 0.006175181785559161, 0.14134890808220316, -0.050883102745195655, 0.12404817905853828, 0.11603492565781927, -0.012931228920612768, 0.04612279897499351, -0.1221953997629181, 0.10962416219269387, 0.030488819435255766, -0.03791547847261122, -0.08576956569355469, 0.10617992572053991, 0.04109483172748736, 0.09352459821063401, 0.1326112431793859, 0.020243287359791893, -0.07206774858212465, 0.05290595771419255, 0.030445689448345196, 0.08761650827454089, 0.1075864347675408, 0.18834621761565273, -0.10397268343268361, 0.058712412531895915, 0.06952737946873307, 0.010187952924533136, -0.10697605863406097, 0.08566790362820723, -0.08810547525338075, -0.08702888952837433, -0.12498050066422242, 0.015530934560176459, -0.16832863877486612, 0.14213705495350862, 0.05905086772528916, -0.0019121753587512528, -0.08752895094263514, -0.009051278617534193, 0.08136144588088297, 0.1711222404911832, -0.07260302015231822, 0.06173732035062107, 0.13487302286479916, 0.04568866095245228, 0.1532614237587874, 0.0010093945363856298, -0.0063299641031092395, -0.029350916149447567, -0.07677818771212426, 0.06929690726793175, -0.01357453330504397, 0.174149240397733, 0.022900429099338253, -0.0008400287117504841, 0.039781800455381114, -0.07550174262338555, 0.08830516865160837, 0.1364118161296145, 0.07518088221029932, 0.0025397347007814894, -0.0462265995212778, 0.002736668745157834, 0.15509429000944333, 0.06489379030889947, -0.0032849891759949793, -0.011918289619012918, -0.028768441275306013, 0.06991513227941405, -0.14409589490244748, -0.09615048955333856, -0.030921945059326078, -0.033187694556112736, -0.10950664751879512, 0.011856578234083422, 0.08688013294807177, -0.13715822902902935, 0.12840758451826986, -0.008589128408103908, 0.18784581824908447, -0.05437716573194037, 0.04848323994519926, 0.0017825347151505645, -0.0815206955375706, -0.03508089286243305, -0.041524063927226004, -0.11060294463822253, -0.1500748384070802, 0.09799749242440477, -0.08714491085475592], [0.1532601157560678, -0.2012139550279636, 0.034676980229078044, 0.10313512516847329, -0.0031283881830069553, -0.01916726182963625, 0.2687412777753798, 0.032681759148218456, -0.1244120470346338, -0.022608316198259364, -0.07367305207392161, -0.008992091610682545, -0.006240552803754962, 0.027272492026671723, -0.14209492002857682, -0.038262456426636456, -0.13636947869596983, 0.08364339445104092, -0.16732650251887612, -0.05925716046053925, -0.08853598808967979, 0.01402948535099506, -0.19227122534213548, 0.021308215054199286, -0.15677840321933986, 0.12249366586288689, 0.05005246301732194, 0.0702099725766189, -0.07184025310891949, -0.042468529329194364, -0.15212939678871237, -0.19725807247066757, -0.23797663321793705, 0.029519760423731677, -0.002486640869208982, 0.11203106823000467, -0.06353396819977757, -0.10184659418206074, 0.17005622080678706, -0.0513957340128633, 0.13149364940766778, 0.014529507700992978, -0.005971403589902087, -0.03801523427342872, 0.14338458814574553, -0.0070680940211018135, 0.14349825125779594, -0.13488585222205268, 0.036622180076669765, 0.08071255957477229, -0.15809891841401974, -0.039885695598564114, 0.07435780948957331, 0.03267354727781671, 0.023511609155141264, -0.18192323515550005, -0.023916275528894533, 0.330970109182839, 0.023003672457597452, -0.07443418336177382, 0.06492540644914316, -2.9527510927743975e-05, -0.03638385416219953, 0.0036515375121150963, 0.03396587913979299, 0.22694231603809795, 0.08011903841426671, -0.05116934666897049, 0.13476060798496597, 0.00290406329001382, -0.045166273610400556, 0.014613331263334875, -0.04821791639967206, 0.181985171694941, 0.011628720325439039, -0.042774568639672446, 0.06745603390238857, 0.07404587994045096, 0.0523698531153629, -0.1413886593420834, -0.08622477334021382, 0.05043837678538169, -0.11787006191027703, -0.044899120676730284, 0.10977007336802158, -0.014531753052831196, 0.07653613604908631, -0.09352490539811605, 0.1312931489470502, -0.16588905792298048, 0.21342370619558704, -0.04311432339294764, -0.14217003312972343, 0.007930206867705231, -0.02058004102474868, 0.07641394782004562, 0.04844434334098731, -0.10834146042468981, 0.05843668743604704, 0.19728351780605746, -0.04558928958388526, 0.018469058967970336, 0.06626457455747849, 0.07722144714656785, 0.0691831323022161, 0.13446767107172372, 0.13419619254752116, 0.11665284455355618, 0.049055912475922454, -0.01874002905641953, -0.09184373123879865, -0.07572463853278437, 0.17642228120793646, -0.22694169446680337, 0.06003906898020641, -0.03256971532885985, -0.022410524414577627, -0.04004678443078661, -0.009045857079850787, 0.05911914373894648, 0.051648101008352265, -0.09501410491653713, 0.16377507499554544, 0.058871536519615277, 0.05345818074270654, -0.1266695408656095, 0.1071935335879804, 0.12290892719736064], [0.038012742231191346, -0.13214837674682145, 0.014557243848656264, -0.15672002670648977, -0.055727507438302244, -0.032682659041787424, 0.05377988778507911, -0.10059767703601427, 0.08926815208349774, 0.030103572270139947, 0.18498673996821724, -0.08186097684535443, -0.007070712984456415, -0.013846426729866457, 0.023637980359423143, -0.06899476946108735, 0.010674277510999464, 0.10776923776436623, 0.1234208430880781, 0.05938928989030805, 0.027010592534815525, 0.000991801332000393, -0.13877349326244828, -0.04618613230634645, -0.12050679004762614, 0.018942125619641856, 0.06666637955012002, 0.11568309597760847, -0.002113694926773517, -0.06885602618355968, -0.06313672283804136, -0.020041338683005686, -0.01334258228018339, 0.01519851977110318, -0.07471437107822575, 0.13845778646142162, -0.026372635191788327, 0.009253221341915212, 0.06751425697811696, -0.11269629018081949, 0.3791388120332493, 0.10789419223599207, 0.04891182850974416, 0.1338511218730203, 0.03555132010489489, 0.09912311461228722, -0.17429267333630266, -0.17558972696679015, 0.04199232214673374, 0.11279207230599439, 0.07373593454533148, 0.05336252843229298, 0.03542457018215781, 0.01416377776479355, -0.05181684315230942, -0.06822907893438845, 0.002890820578150939, 0.03358444390947371, 0.04887269998022253, 0.030608408878795398, -0.02332611813107103, 0.14362218144763728, 0.1256236180465879, -0.043267387122139726, 0.08352514859886453, -0.04425453347058368, 0.07284410983992463, 0.07676822506517185, -0.10080702707833158, -0.0883423360817344, -0.021348627911544484, 0.009487289903669463, -0.10518967047482047, 0.07466889827706567, 0.11100388421434365, 0.024256249684457828, 0.06100332556908455, -0.046209274554846226, -0.1803552276472014, -0.08977867623972043, 0.22820325600755748, -0.16566005979676904, -0.008715678371371695, -0.0009368137911407232, 0.025728844297491754, -0.04706661448772838, -0.023787164137599667, 0.09184494217138833, 0.1222703616255864, 0.10492656652687563, -0.02522483674159213, 0.027282560664947993, -0.010346417163952522, -0.0946689548490621, 0.044971442679568485, 0.18111207195012413, 0.055906623437885064, -0.1126682568944663, 0.002516978185915743, -0.09951145200493342, -0.07356201402042951, 0.06117834525765883, 0.09651548529371543, 0.038427124161407734, 0.038837226329572774, -0.058617398238522814, 0.022079338976314495, -0.12706444649193366, -0.010269784807193106, 0.12889355628807392, 0.1615876811167242, 0.025589383672353735, 0.017850059694311627, 0.11568453577877992, 0.12005449509013907, 0.09647204786551543, 0.008178481190670396, 0.09156677203202276, 0.22132525065538797, -0.15996432389287787, 0.029323187305724214, -0.033612090437213804, -0.07177208533795042, 0.19750030285662437, -0.04918277311801598, -0.04023736270197373, -0.04336315410755286, 0.09260540444412584], [-0.0335754164544611, -0.06576018710164316, -0.01806037111629015, -0.3120359521773823, 0.08510403940944866, -0.09230930475332531, 0.010974913546462984, 0.044497898158362865, -0.2509854943627881, 0.14306086392016054, 0.036706722450154064, -0.040841431967783316, 0.06668882839809046, -0.05155608456635346, -0.048763636259572474, 0.08974483485017884, 0.19738698592967618, -0.037412937255728876, 0.01869557760028066, -0.011837994474290141, -0.012017836146260362, -0.11237863800739686, 0.018287559498106908, 0.15128023664277968, 0.027426512359020154, -0.01893220522832522, -0.29404128288145576, -0.04753606934608734, 0.01895123993091638, 0.12724055878183801, -0.083751622958156, 0.013550683718974952, 0.07036477327722854, 0.09947222722381956, 0.034382322818298255, -0.04076784892677604, 0.07397503110972471, 0.07253069910842401, -0.091187541976102, 0.0334537940992786, -0.02780713810534745, 0.023506372478346405, 0.1274087479583388, 0.02388227723635458, -0.026371530941096174, 0.08232095862778074, 0.1277888624776544, 0.042160090372335465, -0.05677826131318632, -0.22614967604546724, -0.0179058745653872, -0.09881557126347809, 0.08824200056024681, -0.1659738289390193, -0.20717774108743495, -0.08647408403367347, -0.017017558081593765, 0.04997296246848665, -0.10340442104437336, 0.07318580807894716, 0.19841217001852124, -0.11127434726019174, 0.21275365513772623, 0.04630087620812888, 0.14330466668949415, -0.044667684677701956, 0.19155481813994363, -0.02057774103728372, 0.03434293336881491, 0.0031577422684201445, 0.0036841695577729434, 0.007957084786185621, -0.03783159232715854, 0.025258706354388382, -0.14468981962469613, -0.0990417142137483, -0.21937951870893066, 0.021823960794595445, -0.10137373161853902, 0.023011376681155663, -0.18299394472877956, 0.0038059407057729902, 0.023812064650989232, -0.004694283015652224, -0.058567562631904935, 0.06525183614960532, -0.02577856038214618, -0.09627891852162124, 0.005027112541480457, -0.018946171056709753, 0.04199049033441739, 0.02361754347222346, 0.08271156686993034, -0.040873086816408444, -0.052275742721057034, -0.020412011959537454, -0.04666283826073703, -0.04155526882072616, 0.04769719818108056, -0.15102397917203095, -0.12877380456031656, 0.062050456218048916, -0.07259484785553444, 0.029492645942887395, 0.1771291093523593, -0.17346331701365114, 0.26742367552387736, 0.10182393890513873, 0.26513386772579833, 0.13998600411884812, -0.03272024459616863, 0.009713371391714283, -0.09524549621374125, -0.04155529178631554, -0.08794376371040928, 0.2770038996515691, 0.15912093896390908, -0.02125528424335968, 0.12661759608234366, 0.04778218414632595, -0.04833251003471255, -0.21118921044232694, 0.097816757241907, -0.16534385506845362, 0.023494683176800906, 0.0711035844571523, -0.02983228920654176, 0.08091664499871382], [-0.026611800827873615, -0.18647116769091676, -0.06126259979404222, -0.11011869869498596, 0.11305836605969477, -0.11587246791080562, 0.059745758164722794, 0.04420991597149851, -0.11109606665642852, 0.06794136882420185, 0.04751658928510531, 0.044212622358206624, 0.0011484002086342095, 0.1400874449929919, -0.11728811211249779, 0.035427586504175386, 0.06671573743040705, 0.041620743667941426, -0.1200365148788483, 0.07129854447505178, -0.1324175138478233, -0.13588549296676883, -0.014050516854285433, 0.014255882330238551, 0.20067903733256118, 0.1366327692886127, 0.01581080179019765, 0.13743225949260116, -0.08759075805107025, 0.03382595722262422, 0.011010114911502365, 0.0698312009307567, -0.1793689306282823, -0.038741768481829274, -0.10401218814915371, -0.013600985150185353, -0.015422022416132839, 0.014805180848221224, 0.12070548472285436, 0.0583904264205031, 0.03170454174481641, 0.05019212708412651, -0.04775518684601765, -0.13303475836481832, -0.052870460948354354, 0.033822550628644, -0.1088125221467508, -0.1856288903074511, 0.08881426499445194, -0.11399530529431529, 0.026811891385096157, 0.021668859815893803, 0.05468301354669435, -0.017490721857164028, 0.010118069658359378, -0.14570148344264927, 0.001548361528567814, 0.07624319221361153, -0.10957944083179864, 0.14008775443341234, 0.04716532368787098, 0.15157287718220142, -0.04936939079100722, -0.24123213864428383, -0.08636392132447464, -0.13999331943866933, 0.07971902690395134, -0.12628576758300344, -0.014930879839374946, -0.05690259126508013, -0.3463356682362825, 0.12430956431132865, 0.14691491676280416, -0.29516884247432834, -0.09713310530851556, -0.12509077053549647, 0.19625428638264966, 0.034683826666817894, 0.06663511334340054, -0.15319523601506418, 0.1615733997699636, -0.19755557987020622, -0.1659213683266808, 0.09615200755696589, 0.001595669495678836, 0.05871186626227979, 0.04932767168836408, -0.034489919218099525, 0.13248538064998364, -0.1036783209730761, 0.13138902142374817, 0.09840068163024593, 0.10421922490910908, 0.06817473348930804, -0.06449150597204197, 0.19964995653063736, 0.043553388838504126, -0.07635608110411012, -0.01524980759536639, 0.016014333339737084, -0.09500153585746525, 0.0884163327385795, -0.03404516479267339, 0.028027114332444085, 0.0102527195179556, 0.025093158801108746, 0.29652653068244395, -0.16449215979597928, 0.13096077277867035, 0.018681278186614126, -0.11143430459339218, 0.009153871578785644, -0.08391172347834767, 0.05354808292520067, 0.1101855159381183, -0.1793299506990466, 0.021083397072202612, 0.11119822983230843, -0.18127951454200958, -0.01199500483296399, -0.057692174975892775, -0.1225730802864001, 0.02685191684285505, -0.059529500017944235, -0.019256220436641512, -0.12435900847401941, 0.0003224183876791917, 0.08020390065257195], [0.03413239270192328, -0.027996097148450604, 0.03314701973533103, 0.014765263718238265, 0.10077482907881433, 0.0657988258739237, 0.0034301703604497995, -0.023182691513246662, -0.01466554580150123, -0.05887103387072116, -0.09010635008504589, -0.10451744400469223, -0.11057504979721751, -0.01736903811206588, 0.04723355904180034, 0.08475810508912258, 0.01482279089948267, 0.03848499806969131, -0.05912072349781176, -0.12968282586421281, 0.025917698821715098, -0.0376803256800032, -0.19699416257430832, 0.001872010414572225, 0.056890284827688875, -0.01183685940780664, -0.01636083082924104, -0.035098166754540944, -0.028410322012393702, -0.06282207901539982, -0.11798860941185742, 0.04930538879556415, -0.005524386616910779, 0.021280975375301252, -0.06991120046637096, -0.05819896521509661, 0.17627303771144584, -0.11109303691575315, 0.03972316358706278, 0.05239006392581159, 0.09949696182114973, 0.08685975719647555, -0.11931354395633581, -0.02022012341066813, 0.06199795782948908, -0.02285397970033886, 0.1624933023837386, 0.02629256165031992, 0.02451969891438575, -0.10836966728950871, 0.07862568297313637, -0.16150875744925558, -0.030444695650523657, -0.11945268558320023, -0.06462893859333581, -0.16778426560705953, -0.01757831792445025, 0.01463405375150505, 0.038381745729945516, 0.012166349563426968, 0.1404613989592859, 0.13719771800605013, 0.060701533388191765, -0.018401266965685777, -0.045574774436510326, -0.12533396969387467, -0.021325192111839645, -0.02846488329046079, -0.03401766796052814, 0.0378803662454686, 0.015205329502197362, -0.1662430298770858, -0.041967601983054964, -0.1583257333495994, -0.31864013631464266, 0.254685399440631, 0.05276194094076808, 0.06020640738367681, 0.01424908678041248, 0.019358092159295376, 0.07317252624895108, 0.15877097904620383, 0.0010569633756891488, 0.023340274669917487, -0.041891643966062, 0.1257489138001624, 0.2177406167210429, -0.07636554057518888, -0.14039358222837717, -0.08449712536663952, -0.13207134253046302, -0.0005734175822140975, 0.13139872351684706, -0.15535115614123615, -0.06866490857335422, -0.042763815118134464, -0.03665483234427864, -0.09552216051181248, -0.001065990047537728, -0.06607441422870325, 0.06578494792324598, 0.012819898131129617, -0.11957526117328228, -0.042783658178405716, 0.1501905837570163, -0.07871404976122512, 0.1903579518111181, -0.23454646318888125, 0.20812406498508337, -0.20902670635479176, 0.035016311291368486, 0.04427248477756446, 0.02204188420887274, 0.02611175193174448, -0.0649685520949328, -0.02909708425604163, 0.010690951972787148, -0.054150324655972165, -0.011139453585542117, 0.15738587472979546, 0.011228355325548129, -0.12355470269326113, -0.051725915151244334, 0.08043775130930046, -0.04764081212147471, 0.07617126752059328, 0.16567149759280195, 0.08382904138099549], [0.12433631302993157, 0.015117993664261108, -0.09721110677384595, -0.038716140591785804, -0.04810806017246399, 0.1292250238519743, -0.15365965615675012, 0.1420758078509266, -0.1252939106328452, 0.07303190404514782, 0.012142954753488658, 0.1162027538149769, 0.0003481529455797152, 0.01467408538814072, 0.18081289053313732, -0.18481041096985437, 0.14605897196847403, 0.04934100181118127, 0.10767087873780504, -0.04485961408981887, -0.024087859088390017, -0.07977005678488246, 0.03310692408198776, 0.09575385662742307, 0.032802639472397234, 0.02359926254956794, 0.2612516246149184, -0.036457180814028475, -0.08529172037446973, 0.0007089833626726453, 0.022186036800738104, 0.12008534886657184, -0.23282691922704843, 0.002831474064512241, -0.10244074603268581, 0.028245231958658547, 0.1007779583854247, -0.041218476966417554, 0.1944254457725271, 0.00019831581193437945, 0.04020397527289915, 0.04677736273341126, -0.06751916315431096, 0.2018732500450503, 0.08858652758411013, 0.08190158444918262, 0.010214899331635397, -0.06207661734583588, 0.15946034665994258, -0.10193051398052495, 0.06781128580553705, 0.10489033997717043, 0.040866642362183264, -0.0017270343368314908, 0.03136727978110615, -0.05610187695965402, -0.017571871786508524, 0.021607042860371024, 0.06693432319434088, -0.13272510897098003, 0.11452856743296441, -0.01513042790937166, 0.008699483429888617, 0.10641066431611415, -0.10089185434761543, -0.019154078040611866, 0.020759945471674753, -0.05002468640941143, 0.015438289402757863, -0.09204762515401589, -0.009482040281564495, 0.09527340108543095, -0.27120899224519246, -0.20535083118061137, 0.0018620571428045127, 0.2270366864991406, 0.051049398237519125, 0.0009734783245815175, 0.10136605808653962, 0.11440044323861352, 0.06506134151619525, 0.025935134157662465, -0.11734539301574785, 0.07589108809846797, -0.06058735052175115, -0.048473944777101624, -0.05265167158336591, -0.09733837472173477, 0.05553163984710503, 0.09989561621945801, 0.019438462427707026, -0.28809837284814727, 0.005490414793697119, -0.006982020225335103, -0.1178571956581921, -0.0051077584595702824, 0.024634017440079335, 0.03376914365142142, 0.07040024617699252, 0.2171234226091164, 0.026734906717039125, -0.06653832382171655, 0.01292030336045123, 0.12583079253363588, -0.1481360442025038, 0.02489259547661744, 0.04471817829464095, 0.10807987807359379, -0.0692218958144593, 0.08850867140272918, 0.0065884196617567205, 0.03559776707837902, -0.03532504646980557, 0.013172524746236817, 0.2246163608523763, 0.06609801090033988, 0.1168152589562702, 0.016770100977682712, 0.05160094519821245, 0.01765556506692725, -0.2651635588889985, -0.08243503676554494, -0.11599827934460502, 0.001512465874670779, 0.0024051627183626105, -0.027305936095564115, 0.1656307304013517, 0.06394041280542463], [0.1547233161539999, -0.04544127400129047, 0.0535304693001408, 0.0020457654996584988, 0.1467173284399252, 0.09640043024843044, 0.00033841624327898503, -0.0940701743319966, 0.006497308965954586, -0.026170923525012962, -0.05226905706220439, 0.09226664204583526, -0.011366318106592463, 0.13221807657102658, -0.160433042897535, 0.13939563454253748, -0.11456019833051295, 0.1291089959904949, 0.0021014832659803037, 0.1295349762944786, 0.0768265965278321, -0.011767664088463303, -0.29964513627706835, 0.017310056930761198, 0.003962014589866017, 0.12157367573853664, -0.019694622861416884, 0.023321249356848536, -0.031225645535234353, 0.05897539244489285, -0.06939535193643838, -0.0870340679286109, 0.050016264601138616, -0.03500610206823047, 0.07573794596209062, -0.04067073832838605, 0.007614053473833802, 0.14220608639969057, 0.017010661791237357, -0.11488277166879765, 0.023878547001973397, -0.040697874027519315, 0.20342981338926724, -0.09509302378585982, 0.005644463229876922, -0.1474292654494955, 0.10932020476494396, -0.06734705688138384, 0.05501921406040098, 0.2255236978402088, -0.22933020713403812, -0.11233614486186277, 0.1333717588569954, -0.00637568994153227, -0.07452256289478876, 0.03363643316320469, -0.08375490334331319, -0.21753426476996143, 0.21225246531950076, 0.12480746467330965, -0.014470066024770358, -0.05586049953197349, -0.06059079258038058, 0.05011961907859841, 0.1777494386830912, -0.09986396738616578, 0.13851067461116567, 0.11474511459619105, -0.06604759529914513, 0.22159747922874737, -0.014696780171428005, 0.04175158417291798, -0.060838276584587736, -0.1362466247221237, -0.1071414307735999, -0.14961466199795184, -0.11739338531719133, -0.03807773338981033, 0.020886771111020674, 0.05807463784450063, -0.049093874497795356, 0.14069405496381737, -0.027029044263373703, 0.03737975842146665, -0.06164611171337064, -0.04233857073400055, -0.21620377055267614, -0.177768697365581, 0.13083778097797422, -0.09565946533103327, -0.03850549446270808, 0.055302853173954815, 0.0539281178434411, -0.14364153587438178, 0.051033534604731194, -0.11095925195333656, -0.115018233795434, -0.2871679077364106, -0.01990684784950891, 0.03079355367032488, -0.1219593190896458, 0.1203600403176933, 0.0020666191073546677, 0.009463473084765906, -0.14809165415105713, 0.10020556671369561, 0.024053509894935064, 0.11703144062259728, -0.10592957157151145, -0.182727917120854, -0.1687244992187343, 0.12513172552579296, 0.13459721104620678, 0.11043261049989213, 0.12489401130466128, -0.0649513405151833, -0.14087681380641512, -0.07435228290512622, 0.13659739075638383, -0.03527829605183788, 0.04812146983502583, -0.10819747447040429, -0.08029527026540038, -0.11492972452301808, -0.1102779071181182, -0.15125653596536828, 0.0034403192252720227, -0.2292026592224802], [0.317295816257846, 0.03494768590450759, 0.005455045549395327, 0.10897290479386454, 0.21849138777709964, 0.09154148864670791, 0.035238712777271836, -0.09456842995800398, 0.15045365402659136, -0.08111332124386532, -0.09915951543039354, -0.03397658504752261, 0.04979779951645253, 0.019518967995871148, 0.06454691726370716, 0.16654563554378313, -0.061188920815673196, 0.09430122312003561, 0.016857164307247093, 0.14640552833495526, 0.11793481830005423, 0.010761540092877574, -0.1169479774571812, -0.09932545078075809, 0.20046246762541664, 0.06700256958877462, 0.07094299896480265, 0.07184935475012541, 0.17316966103517187, -0.10792877667184293, -0.15426605418536368, 0.15461192251604575, 0.06403558936711566, -0.07858684030828515, 0.07891135537612488, 0.005983589408218016, -0.06029924467650085, -0.15056661017763193, 0.08326961220837172, 0.09028868448437843, 0.1997212458576943, 0.11811875365893272, -0.03636280198757041, -0.13518944973516886, -0.15026603201369448, 0.0009573301575476925, -0.007703127649974103, 0.06840269303663263, 0.10684217012712179, 0.13022107623869472, 0.07045327928799935, 0.08184853636937758, -0.0200816297680368, 0.023742003157021352, -0.05446479664740163, 0.13358925406192454, -0.04636618149418977, -0.05570212115139862, 0.18243111482344349, -0.16522351713576, 0.11174650098034261, -0.09068068197875429, -0.03568577996652961, 0.0005103535492616791, 0.1140000365914878, -0.032187075208881144, 0.08977775689765707, 0.19349474788674761, 0.05461447646008434, -0.06288218811948, -0.015713922343791646, 0.08340399744304966, -0.02172289441043228, -0.0050965802148904005, 0.03188160078167725, -0.11687935626943591, -0.046988367475525754, -0.0954319687578888, -0.031605382762567885, 0.11426197733407611, 0.07276465016462302, 0.12294739763816707, 0.11219074103140148, -0.07452901615644428, 0.08050468357978893, -0.05088369734229452, -0.18986891688371374, 0.01088427461544921, 0.028286363379909998, 0.028707921611065217, 0.03921357987842744, -0.022256514670972883, 0.0694690449158056, 0.06673533158273452, -0.16780184482494695, 0.023028444639270132, -0.10443171089120858, -0.0017270336774218634, 0.018710856723837797, -0.01176761381702765, -0.06636409018373668, -0.015274019977029752, 0.18854985969992596, 0.14912421931098233, 0.02335571633346436, 0.08843249227810537, -0.06251158027505653, -0.3149168373560778, 0.09189512810852911, -0.12433605012295698, -0.12272272558481694, -0.06026974133056274, -0.013421879273763086, -0.031146376999693512, 0.17274040323057668, -0.08158177410557123, 0.08800734844218193, -0.1380512230472362, 0.2306761756657377, -0.17207748045339266, -0.048159119452845144, -0.09063518078294447, -0.05536013996790842, -0.04363598333342427, 0.03053390010213146, 0.11535470580088254, -0.07799678101995568, -0.21200655194554524], [0.023288139674023153, -0.10120465682597797, -0.028446845139018427, -0.05121636385915194, -0.09126552979596356, -0.031176959769642316, 0.027232623636101475, 0.013518354034479966, 0.07532001236005283, 0.04898069863283571, 0.0446162918091879, 0.11341484300945293, 0.005874995321572088, -0.05590851766721491, -0.03350127398671576, 0.02901122443871379, -0.16339046334170715, -0.06790796935353118, 0.016382785517995997, 0.005168302030185481, 0.17260412491829152, 0.03470100593520481, 0.031141487765429958, 0.06342908539425479, -0.049517529715681324, 0.026336881838984652, 0.05315324766687588, 0.10473838501726464, 0.059428087346540495, -0.07472090396656063, 0.007773182615954318, 0.18545322770222814, 0.004894037343275528, -0.22915975878450598, 0.16678437650112726, -0.04728324093289528, -0.0472010825321209, -0.08477995339511156, -0.01641593380865406, 0.042308032780282015, 0.1163061755107089, -0.00048155882200242537, -0.041204302630659016, 0.17340302512832645, 0.025816698967891776, 0.005024236264945577, 0.030267309534218377, -0.08824106431552872, -0.05564946008876684, 0.07277701326079987, 0.13734221769479651, 0.13679887978907498, -0.09618434918641762, -0.05105757669927678, -0.005624074872199439, 0.0010853418218192952, -0.05062846604316034, 0.10148561001806114, -0.07569469740661497, 0.11769686908039272, -0.07537061504395827, -0.03614046393347566, -0.1321472278702211, -0.1608625902057402, 0.1164987605833242, -0.018129973015156113, -0.061008543419451805, 0.018295207350255794, -0.19350677533538163, 0.014560716385594029, 0.11823645201063504, 0.0506425461318896, 0.06209639247743305, 0.04401810654208051, -0.047976045469718245, -0.06114945268175116, -0.07054506923901571, 0.1803094807444714, 0.06726297478717687, 0.0649543378125383, -0.14945842623458166, 0.04651130083867452, 0.045353347658324196, 0.05482700248463153, -0.10636000531520126, -0.022137962976353575, 0.030023488882503946, -0.03898299136172298, -0.13439651773713945, -0.07181567727876619, -0.16537004704334576, -0.03504053137283407, -0.13345652182621776, 0.08167949605552484, -0.17164148154657258, -0.07541275406832136, -0.03581674739589337, 0.018740839249445244, -0.05247190442001734, 0.030115476076412007, -0.018148473333588308, 0.1386051805908351, 0.020488891649006632, 0.03011335031754004, 0.06628776773869753, -0.09930362662156066, 0.05929217570132558, -0.043530584739894344, 0.10230954014687306, 0.11538079734994462, 0.09224785457700639, -0.17121634827576343, 0.24727694822944504, -0.1642675599923625, -0.10355477309070066, -0.014011657026242871, -0.03319426592734922, -0.043940398728442215, 0.03568165968736644, 0.09300384624426575, -0.06807218866411896, 0.10978665003806393, -0.0008229274782905709, -0.04097662153695892, 0.15022042058923715, 0.04753846896709389, -0.13943208882598215, -0.038571003374159515], [0.053624575381022596, 0.08338305959863299, -0.006283367482183148, -0.035836506857122086, -0.09676179860572084, 0.06024499128066728, 0.09227833970812872, 0.1015394171451059, -0.14321718809273284, 0.03321223286861545, 0.03065639567748297, -0.11662327466711299, 0.046440384924608294, -0.056389773484257256, 0.06507794599487896, -0.18021010689005848, -0.007310289309137855, -0.01562221156935465, -0.07540987816902904, -0.11921296860813031, 0.13354905978049403, 0.137236689443624, -0.03098504429614379, 0.08944164832605231, 0.03130375385871092, -0.0312160066610642, 0.13202622486211002, -0.035427746746054575, 0.0988307625110591, 0.1336168413476841, 0.024079780370459904, -0.09421071678076035, -0.0190907086673438, 0.09257453083194102, -0.016431681724282183, 0.07339205849326982, 0.025498330816055428, -0.07934100608915415, -0.049139388022766226, 0.05608733200002787, 0.028400397068057918, 0.022089723625910898, -0.004289901157128139, 0.13257688402930956, -0.11654024418465427, -0.13999575587619337, 0.0467008258245456, 0.01580573795899254, 0.12218778054730646, -0.033120387500108234, -0.106579756078802, -0.2315638973497813, 0.11068664445800279, 0.06910613832828542, 0.021109117660588636, 0.04704773155853596, 0.08498189119960739, -0.03335034379476413, -0.13523882656512157, -0.07999034779154342, -0.059610326347249276, -0.05654832451390826, -0.04738983998111745, -0.050946838351524325, 0.02975860705069245, 0.09736986149042566, 0.09441560027689404, 0.23667952581023746, 0.041037082288114556, 0.061273643848202726, -0.038799939269829026, 0.2023586228848161, -0.05403070418091443, -0.025091427205470945, -0.1420623345047623, 0.0489804680297517, 0.17134661869702889, 0.00048927388119669, -0.0065667601973078155, 0.035534066254863876, 0.166480854682708, -0.07336025155562864, 0.012616693156530651, -0.07034487842274634, 0.04080120665088832, -0.04086364583456956, 0.1212501092263447, 0.06177891528962898, 0.04504271997812125, 0.11457056775374612, -0.11683443922996686, 0.09732684079383264, 0.11038728570375592, 0.027346878319799522, -0.09500144428841888, 0.011825712954013577, -0.1580087293190315, -0.1308714450790832, -0.15894271781404343, 0.006120613292919292, -0.16567600193687088, 0.12402284290779247, -0.054283909928279174, 0.05433627811471678, 0.017014757864438925, -0.053665750320568, 0.0482746822811006, -0.018203506507030957, -0.048601247593131544, -0.14353120859905816, 0.10184058467014087, -0.019978360961550708, -0.02689880744662453, -0.16165150469551398, 0.08180249246976322, -0.061821117990033383, 0.01551989079554348, -0.026806977499127704, 0.08610229094397251, 0.12458557876547871, 0.03759869139891415, 0.20615818027995678, -0.03167711567131452, -0.026915265629324676, -0.10538833085235158, -0.1722695439660363, -0.12856772180033388, -0.07155060201407998], [-0.1552723184583298, -0.08290635047500751, -0.03537806537976534, 0.060294774372384896, -0.05235506503052564, -0.03134505470533169, 0.07697103122301695, -0.10197599733234362, 0.016184784455417017, 0.1056735593062535, 0.04506875007317123, 0.04143818087008561, 0.07980312621203071, 0.1773899620079055, -0.04463024234498431, 0.04032415851806261, -0.09009518747644361, -0.09210082389322183, -0.10347000982342609, 0.14204842817967947, -0.07243072455859813, -0.20309744206619398, -0.1423377898394338, 0.06273397593121151, 0.017738578296467286, -0.0233272563750432, 0.11739005526823866, -0.07637436798442249, -0.02284624055550108, -0.007021420149371983, -0.11526189299965638, 0.042094787323593716, -0.02832303831706253, -0.11479204354468094, -0.09221485008171158, -0.03432187733151962, -0.06117841133787059, 0.15007239057347163, -0.11114684686853124, 0.024468405324363052, 0.10742943492233979, 0.08697318306265678, -0.14978224216061653, -0.05648764538840467, 0.02306457920593042, 0.024548921764880507, 0.19045194086306844, 0.07900388226286509, 0.15391448778551062, -0.0687265542084371, 0.16598733104873403, 0.04604210553486015, -0.025320664866265993, -0.01951145464443137, 0.009179846182162483, -0.02432768139896646, 0.1379027029137932, -0.12027092222869347, 0.09788336588497124, 0.07735266693223278, 0.022428214459688924, -0.12652683847078003, -0.05068027252269128, -0.04796725144490381, -0.04705532477043662, -0.12471291157721197, 0.07149179246385437, -0.05275161198954187, 0.07491976431134167, 0.11953653712618265, -0.08070609405264065, 0.01166222545867406, -0.01801737427024776, -0.028908106400229887, -0.06352280394558793, 0.02391836702111396, 0.09746131943804162, -0.054670220780440586, 0.07056316416030864, -0.16484649958710706, -0.05180778204787641, 0.024502035446493597, 0.018179575873133787, 0.05983369777684898, 0.0004997794594728837, 0.12738599282431037, -0.08657643190174205, -0.10647107236747609, 0.07733594290560125, -0.07977738644778666, 0.17129678057471878, 0.03448154090996786, -0.019590887229916455, -0.039582592695613865, -0.10933144294011889, -0.048604172936432516, -0.12873535755004947, -0.028761317594333893, -0.107709204279913, -0.03376804919457133, 0.09415737059964073, 0.13150977821751805, 0.011645278643855535, 0.04528267189887451, -0.004571817988701099, 0.11185492988566104, 0.06086215572764011, 0.0576834422442726, -0.05344405637523481, -0.002486189589205023, -0.1389213824682645, -0.013015080915821006, 0.15417538792551078, 0.03360267158771346, 0.08642068794034442, -0.10983649492944551, 0.03859125778865552, -0.1430409701038339, 0.17637030865514006, 0.05907973047419137, -0.10163906488215779, 0.08714219944939273, -0.026777212128424974, 0.05627276989017147, 0.05076920974699971, 0.02638321025224786, -0.14225214369839928, -0.21314622722295223], [0.056424979065939795, -0.03658050688411855, -0.23757321128638248, 0.011208186586528238, -0.08551088363286594, 0.1934644455217743, 0.03759713547866269, -0.04853052283948478, 0.04238698818778936, -0.04915824295352063, -0.0016067780319264993, -0.046581447786717696, 0.00782608756616248, -0.18496802616865077, 0.06519607126634552, -0.08470185985781971, 0.18000859614056236, 0.12197861665428936, 0.009273003283064634, -0.04435564645131635, -0.1008354138886958, -0.012073800703555949, 0.06996093334348522, 0.13653481060811948, 0.15863591003814398, -0.09687510257773588, 0.101727297829316, 0.08139583427741139, 0.10968946403888995, -0.032493893385143136, -0.02692013697315352, 0.08624381348813323, 0.11157915693090019, -0.07929899381287972, 0.198338219214057, -0.10492449407501157, -0.05849668613736855, -0.11384111659814411, -0.06318711340378319, 0.18149948864116114, 0.14659967317144967, -0.10719998243109728, 0.07146265467296518, -0.11270618863754414, -0.1505339481566653, -0.2530323724200636, -0.15079206084411811, 0.13908996760734782, -0.08960115645312966, -0.07119742208922208, 0.05691193484341818, 0.08658496295579762, -0.008239523728921517, -0.026537177037020732, -0.0023352541424589905, 0.018463247013566816, -0.00568833144410482, -0.18750897498968067, 0.1052123105137511, 0.15968296188274467, -0.001878161980000491, -0.04512384360375792, -0.04460987941368481, -0.0010883190366098717, 0.16605661528777976, 0.10833547317460447, 0.060078458923733945, 0.038987309308133336, 0.059184307472602074, 0.09897554933123635, 0.01410509427367436, -0.07638488627530363, 0.09146982134915214, -0.3120552990501316, 0.0874077360140013, 0.05810158524579573, 0.22424017804157878, -0.060013838594205504, -0.1472862538353352, 0.001965835412356169, 0.039414491114770175, -0.023492160249572493, 0.12209710660620979, 0.056211894120501635, 0.10180599576736465, -0.12802831831593028, 0.06486735736781728, 0.058980814614149286, -0.08060407911543652, 0.1638831690846706, -0.0640211914769883, 0.1372605662474122, 0.16575125535734136, -0.09202708320414031, -0.06705316369646688, 0.07791826542772647, -0.2806352148590937, 0.03637946025234747, -0.08109251802690587, 0.03849356059211444, 0.04988905178204629, 0.056700327105632435, 0.1179063203608772, 0.06975545270866876, 0.01997007948355408, 0.05443931166423268, -0.10412828801352304, -0.0892577334723238, -0.043171902814647396, -0.024612368746294272, 0.028870998164902694, 0.16033132338275885, -0.04265310137864995, 0.06529567385992639, 0.060764473026876445, 0.031214270945973288, -0.054507696675195984, -0.11388428576822483, 0.25982047736864955, 0.1594230195215351, 0.11421700555040722, 0.19432112892166417, 0.023586939433447973, -0.018437320898834438, -0.17115461405038668, 0.10030202266469768, 0.15458733146964615, -0.12795548799199885], [0.026536455226553367, 0.04152058098117014, -0.03704542146722334, 0.11638293697109639, 0.2120641604683957, -0.0945911558233814, -0.026577058301426124, -0.18032285739037804, -0.023718703727809664, -0.1421574842115025, 0.07639327943211577, -0.11006968145177765, 0.11077132318818343, -0.059835134748293564, -0.09221093269104771, -0.1317531753204496, -0.08062475923947915, -0.006792310871792618, 0.1925583785981462, 0.003811075970031649, -0.1251490004648058, -0.0291718084158286, -0.1129859768498087, 0.16895185823603026, 0.012503077153169444, 0.16279986589992393, -0.006397695355727681, 0.044694939972656965, 0.030391089919568404, -0.015692450843102862, 0.09298559556587982, 0.013757347587473007, 0.040860099466505366, 0.07006392338452315, -0.05869159810592921, 0.05656292623800567, -0.006947603798700309, -0.04474917924433959, -0.08720482158049798, 0.07776579428012069, -0.24901957786483145, -0.1029169823080224, 0.19274316581779918, -0.07854402573711641, -0.17870376636383226, -0.10432973983832676, 0.189971567727942, 0.22115375731861603, -0.1389205791873424, 0.08193401051034394, -0.03248761266138268, -0.030494724357629364, -0.2804618107637901, 0.11270443141055463, 0.04692086761756526, 0.023058356459334794, -0.09618286945400942, 0.04911104463361902, -0.05974465917950473, 0.09026386537557456, -0.024686876179610625, 0.06034140352847615, -0.04471248060415481, 0.06818461718400766, -0.017610907089541068, 0.016687908208036603, 0.02326046798059188, -0.01227237000622094, 0.006995189105023848, 0.005254806105815593, -0.05472169477631121, -0.05978238831277993, 0.015336946124312106, 0.025849215648663153, -0.06382363216737284, 0.041158467636062616, 0.24292412130058205, -0.06182795971226318, 0.12575439800688606, 0.004580066533123092, 0.1360150361448998, 0.0742871775730758, -0.20012871279361621, -0.11424091781287499, 0.09133776330681527, -0.03244644133078873, -0.03259204945486852, 0.08557373376794956, 0.24729895566404955, 0.15087108643652572, -0.01048002439284057, 0.054832835061561294, 0.12848885689852863, -0.05902155795525454, -0.11448355483825864, -0.035786865319542074, 0.0528345418557243, -0.13412824279217977, 0.08266674986254455, 0.10403240330675191, 0.05221433600285182, -0.09016289730825518, 0.055967335294110715, -0.08106064982185668, -0.17154495384940585, 0.11066691406553661, 0.050293166501210275, -0.051349997890290294, 0.08901580813150502, -0.0639254350562766, -0.18977379057215507, 0.04092749123816215, -0.0427373882846641, -0.036401625158484746, 0.11591316165859009, -0.06486871071557075, -0.07492110474745302, -0.06838990198151236, 0.11022123935428439, 0.11162439638542056, 0.1291259107021513, -0.11347520742174924, -0.1464929829371077, 0.13507026737540054, 0.2296256146858185, 0.04980648882384904, 0.022678248929310835, 0.02741415048738211], [0.002664880981069004, -0.12275814074349317, 0.017840470524040627, 0.08188025206232762, -0.13174272266263462, -0.1233209259953904, -0.16055141986721239, 0.16216677124797665, -0.013716063001769249, 0.14145333821843856, 0.0859518064560807, -0.1183078342895669, 0.15951088097286456, 0.06068178970380557, 0.06973009296094726, -0.01534456312523643, 0.010984079337879109, -0.11528952647535012, 0.07340331159471981, -0.22274599535306008, 0.017982865326718164, 0.007710055614527404, -0.22798867562591624, -0.0798909128191458, -0.0020443697242750274, 0.1338349169794285, -0.24619937742084472, 0.05661849350330654, -0.23281345580594273, 0.09496890812265289, 0.10193641140380537, 0.04850629475770673, -0.06456836829987296, 0.0007348787963535079, 0.16102519771870147, -0.06430930620590729, 0.058969302013498544, -0.041011326006842305, -0.06933911490110353, 0.03148052622095535, 0.09229519026609746, -0.12159913478164268, -0.20637487617741326, -0.0496850330341488, -0.13061518063623534, -0.17717665989418493, 0.13200976894076324, 0.09976363992584149, -0.14484727496607677, -0.03939377192662742, 0.03956295182920332, -0.03790117010363425, 0.052851960358321216, 0.12303125226382336, 0.0641741370077106, -0.028165265639358693, 0.02390795260361614, 0.013560558577167153, 0.008695202405318765, 0.004693360484838831, -0.013712296149609305, 0.03960302887359013, -0.052060216256312394, 0.03997947054302566, 0.06621146804140142, 0.1045681992544295, -0.04220256526137278, -0.035787680549723866, 0.061957782969004734, 0.0685706830827921, 0.04676794223943285, 0.06568120717133495, 0.07198637697562878, -0.013267558282027971, -0.15924256105346976, -0.14105209576128455, 0.0041737313411426115, -0.22537117113782207, 0.06799414975960644, -0.04486678705708039, -0.11887008059180183, 0.15673841666182092, -0.06844430293650126, -0.07688570672531374, 0.12956781273565987, -0.008756560413252516, 0.025335929431918734, -0.15639568523340838, -0.05195129449224775, -0.10457510165112303, -0.03849801297865184, 0.15071303496446928, 0.14143404216396854, -0.08610473995005606, -0.12203638863805756, 0.2581299364926325, -0.08558696883614028, 0.0625250034385111, 0.012740290302446977, 0.16354542134733907, 0.11761935509539698, -0.027738662135920245, -0.05351128598269214, 0.14550740123781655, -0.1443755391551075, 0.05647147520350851, -0.1507132347802598, 0.0763651337341666, 0.10174804921759234, -0.12022041714680598, -0.1279828503079432, 0.19050450547946593, 0.022080941031383035, -0.08222260651809796, 0.1344998747330121, -0.058175337219970535, -0.07583408816619455, 0.03637769077954161, -0.1719658126016649, -0.006652013974536287, -0.07926600628309675, -0.179335227870934, -0.02186690390923408, -0.08367663572721137, 0.003060243667321097, -0.001072370466825343, -0.05015502813202915, -0.09610475738097611], [0.06464094946245885, 0.10690136280750168, 0.1171155176597098, -0.14937546845345853, 0.1485719937933967, -0.240912390198943, -0.06866584820277448, -0.05355483377165069, -0.04450533539165462, -0.032455834806347096, 0.008523863777208108, 0.054157671385602076, 0.2409635653389817, 0.03915376513499259, -0.02861261283051493, -0.18548024769587573, 0.3339379267718996, -0.007866173885361498, -0.05038632207536653, -0.06342161286241682, -0.06858704969141181, 0.05443302163525433, 0.07733176286705823, -0.03196600813415737, -0.0038577096687261816, 0.1469764663270152, 0.041025524138965076, -0.2522370699665105, -0.05903190402210161, -0.07351368005671732, -0.19252101102493058, -0.13960742342540067, -0.059006249411703085, -0.0022433057019743846, -0.06798948318065808, -0.13196466941530471, -0.02535858316014878, 0.12400668783499783, 0.04473494373586166, 0.08953933145492067, 0.05251951127084679, 0.0022278454864592535, 0.06646987653256914, -0.021016389635892228, -0.06681793013271997, 0.03733122262526361, 0.1496661640569645, -0.028660644189967836, 0.017548706502026896, -0.04655665111470313, 0.13420967717932317, -0.08592074729841774, -0.051151921924542515, -0.07255257957142947, 0.015955208931402676, -0.012184494799282979, -0.20650896289326032, -0.025616361739626746, -0.09286369136521545, -0.0752202827305186, -0.031154330831014303, -0.040278225270331286, -0.04062906003219662, 0.03241803131788262, 0.1319574278545239, 0.0012123781280195618, 0.10256039587556633, -0.10736684569135126, -0.07603248627518605, 0.07220305472731202, -0.04501655349799138, -0.012655886081894028, 0.08128917661292767, 0.2596705180388075, 0.17058773745705208, 0.15725573069505, -0.09845531082591966, 0.04662223594305245, 0.05207895929257153, -0.06376962857259075, 0.036743403909100504, 0.17310543633966527, 0.01580596844590832, 0.0023793764219008666, -0.13043932543911496, 0.18049950773660778, -0.1074013996304225, -0.1220056167443059, -0.054452610365173605, 0.07969829311857526, -0.061556776358232417, 0.11958358418334215, -0.06451976755684381, 0.0863358504660866, 0.03588351656934954, 0.04817910862533458, 0.0965398806317623, -0.03806496117063967, 0.09966865702148181, -0.030901986088734113, -0.10947058273879451, 0.021758130332040077, 0.017737585048769107, -0.06932411254066313, -0.11098289702171742, 0.12973282187511462, -0.18063934848288693, -0.04508457496832201, 0.1647492350937555, -0.06963129647866821, 0.043104708433889284, -0.06572313770252525, -0.022310945207071935, 0.07144451024294596, -0.027650620806298133, -0.07332306814496665, 0.01980001999481084, 0.08901087342491272, -0.04905966687085622, 0.03116037886389961, 0.1835498745145818, 0.07485968995489786, 0.036022139269329984, 0.22388002511181582, -0.2207801306451492, -0.14280660494585123, 0.182967295525863, -0.12330167919084223], [-0.10128617732317155, -0.0318187632947299, -0.01878376941597134, 0.06850886320274487, -0.08694868429417439, -0.20717420528821062, 0.14104053808481737, 0.0023757335543387534, -0.14708717155852696, 0.008250911949940924, -0.009547291848906408, 0.11606836731882983, -0.016658108530615726, -0.05488522071323276, -0.0038722011614580137, 0.02306010641316768, 0.026953680834747064, -0.15078245736666174, -0.027943127188202476, -0.05661236661477636, -0.06514177602813821, 0.007757174948181404, -0.0023894664862306875, -0.07598296224358443, 0.04456212152332782, -0.009457806710165351, 0.07828000585551721, -0.07651704354543143, 0.023681564462818886, -0.02799189413392798, 0.1990368056330434, -0.06121630764888216, -0.14362963313748447, -0.10613448928307045, -0.08078944031853623, -0.021159554867793924, -0.09551980447462215, -0.0089021486045617, -0.1494003309186176, 0.031632293398085085, 0.09307472766211182, 0.06776695237404222, -0.008742336381853604, -0.021171513529149637, -0.08718762258373584, 0.0950132312635574, -0.3244873213479521, -0.07291570966753118, -0.03245235502697241, -0.00756394517032388, -0.01172576967498369, -0.05784690706015289, 0.023203881288556973, 0.09571470767026849, 0.13176499025389485, -0.02003193048068242, 0.17672341946461217, -0.00436981437130907, 0.05115190956243474, -0.07906093867611107, -0.05559951751459047, -0.05577389507353654, -0.08574924641018379, -0.027169178098121916, 0.015018904633884445, 0.07809917717435766, 0.10383136111392562, -0.3640197364808902, -0.009839197458070539, 0.15314776237977334, -0.04595101081302883, 0.10980065983713973, -0.17268000690326626, 0.03221240702124822, -0.08216295400796783, -0.08182254619000245, 0.07737672786450268, -0.07140603066896836, 0.21979493874443962, 0.017312787283173453, 0.0751938366772228, 0.10891853256181377, -0.024484545695806412, 0.025520179132702676, -0.20683911604753727, -0.012179477539323448, -0.016744245443081347, -0.08484620611742491, 0.045210050836311584, 0.1938947704942312, 0.030888817018664305, -0.05807224034848199, -0.02714126048106938, -0.03826841726974715, 0.14491925438322634, 0.08530549009581365, 0.10183278005218536, 0.017021219957034647, -0.27997916067682443, 0.038742750162560874, 0.1312508295547961, -0.05899807021852402, -0.16777453366502174, 0.004969487612875335, 0.011460965029852277, -0.0439398581556356, -0.025575062251544274, -0.04773968629776258, 0.03925808950197847, 0.027401085812727852, 0.040486351591011445, -0.053530397200854854, -0.13637147025921542, 0.008119694855250104, -0.17629625412852645, 0.12101218010114909, -0.05468593829127001, 0.1825437784501569, -0.10792797599981947, 0.02520572554841204, -0.07257560309541906, 0.21882838569488614, 0.07803060779591148, 0.041659439240877345, 0.08141688424649818, -0.05723061880066172, -0.06909617797274467, -0.005363071945975735], [0.04817026840087169, -0.07699367751373969, 0.05939892842341135, 0.07595529752924873, 0.08140274020246313, -0.015394435838536254, -0.09213162533834869, -0.14577103091278729, -0.019129036719968986, 0.09235294497266341, 0.12001762513224115, -0.04786463423093648, 0.07886860470091565, 0.1553533554637517, -0.043281750855412006, 0.09229401511859828, 0.06567765254493484, -0.011433012909299054, 0.17183772972809142, -0.09839893615150609, 0.08752905869019491, -0.029517359741868525, -0.1285199692293538, 0.01677359019838407, -0.047495026951103664, -0.0644079255213789, 0.04187738518715574, -0.08819067427630471, -0.021341767664591487, 0.05800561549687056, -0.07414538668470566, -0.1988183717866259, 0.04790578701322718, 0.00512210002669618, -0.16714900848712447, 0.05083876307911985, -0.05671548428210034, -0.051991453181436234, 0.007069159784498886, 0.1766259522352727, -0.03250376449601303, -0.28552157440661907, 0.01485051901521458, 0.10601484921597623, -0.18340211641085719, 0.04867516234258529, 0.03813469382299743, -0.06300173198521225, 0.13069798530056542, -0.03985531892286884, -0.04004748350485803, 0.04829163767152215, 0.0756553295998766, 0.07719875298775739, -0.12208932597270143, -0.11190262995081446, 0.09114921168395941, 0.11918589325276135, -0.10650297813352576, -0.13394702897533367, 0.0692805629785218, 0.09955142722507865, 0.1368232801316605, 0.29099732712425797, -0.014229982085761426, -0.03865474269087992, -0.05825011673929891, -0.0911225873403954, 0.10334552964837228, 0.1559828710371457, 0.08165243336947589, 0.06655874813313657, -0.01793508256902355, 0.0012949761089751759, 0.03140699302674171, -0.011734668477942477, 0.22875365926570054, -0.0068140879407161134, -0.07240973285100252, 0.05360969107905056, -0.09696055262855699, 0.15356983171158814, 0.11713769519249598, 0.12469393471475168, 0.25356767789771395, 0.06284787094805952, -0.15240164857311195, 0.21433609479716748, 0.04429268289903856, 0.0670746090376849, 0.002344412688113863, -0.021145528915977766, -0.17616855804931128, 0.16048730437298356, -0.10025479650682227, -0.0298534361510059, -0.20029759433541203, -0.023421719336702333, 0.04467356735223321, 0.08423014603396563, -0.028649640283387998, 0.04441539529121996, -0.04380933465548362, -0.0789854022750839, -0.004542624935946115, 0.01817524047958298, -0.08040051163062131, 0.04142756152855688, 0.04238160053042801, 0.05759550803349221, -0.04126192577132775, 0.11296805523284666, 0.1708759688059766, -0.23141157609448038, 0.19448128722610117, -0.06232730663735213, 0.047364609916231294, 0.06764917455277904, -0.009267682305035848, -0.06191755233288783, -0.051387575979219814, -0.12389469960562749, -0.05965422308782547, 0.014432230650751273, -0.04253458415243347, 0.16772603846523784, -0.1703519126243659, 0.03232639747059104], [0.052892974476491134, 0.0013643613198043155, -0.11718894653879224, 0.14376578721048702, 0.12429371284295379, 0.05998793041688303, -0.24876142483188904, -0.16363322088651455, -0.05737247877474175, -0.08763753783419381, -0.046116630213033985, -0.013234444940901311, 0.0814820221625742, 0.06382271731259834, 0.12681292379416823, -0.06250711944924511, -0.02952123356148109, 0.13341766080909065, 0.0068730677655253185, 0.05416010306531301, -0.03422966638144525, 0.14072558596770454, 0.11499146682846904, 0.03279579569158819, 0.041163064629778645, 0.021797866093415094, 0.10554705586924532, 0.02572512326759476, 0.17519908627966052, -0.10441597712997583, 0.10294581287271883, 0.09051346103666809, 0.08182179372858618, 0.018760672809808216, -0.11578683291278866, 0.12525021946876796, -0.0033918395851580767, 0.000446220507760533, 0.11901298429665164, -0.17917164207806083, 0.23637617063966487, -0.13014625855890252, -0.1541856043049944, -0.12276671989487392, 0.049021791197610916, 0.08938926651906723, 0.1700039840464315, 0.12147045057952734, 0.12779033631180184, 0.008852154312258227, -0.09702694814814972, 0.16531611449301578, 0.04219287237800731, 0.18506778618528402, -0.0898395801472037, -0.004788294504722025, -0.14097168371826235, -0.06339504978475484, -0.1903589881103859, 0.0020406127838867505, -0.06990588550711134, -0.20136463920511147, -0.02098328612150021, -0.030444862504461427, 0.03499811178826176, -0.004115777085884096, 0.13867691014786393, 0.04264620125202348, 0.12718015897465243, 0.02668645995194854, -0.12763478926047037, -0.1539609158584408, -0.14430177121753646, 0.04598692867609192, 0.027030921027824922, -0.0030136888957615336, 0.02617356457226792, -0.009991620302849507, 0.044649823129042684, -0.08498645129224525, 0.1106366040801241, 0.08211333168977378, -0.02357375660380546, -0.04146276258307793, 0.033053182434790995, -0.023079578813088652, -0.04274926322171208, 0.016268605524752868, -0.1491594100800146, 0.03031246319519754, 0.027877275932348233, -0.15018401807396056, -0.06478105299427289, 0.17299091542384756, 0.026629669106172003, 0.035450196965479026, -0.0007460342615449741, -0.036389413155816425, -0.0008875175755255382, 0.1857468275346813, -0.09334042026976122, -0.032873263812182814, -0.021883033643487943, 0.19272192377565864, -0.09430178684981734, -0.037186436862387755, -0.038585923424330544, 0.058137845770015587, 0.08161046394037114, -0.07401638218444297, 0.17219542403670043, -0.062356846719834234, 0.22263551693744155, -0.1112219547050694, 0.08063324087511485, 0.12667059243061288, -0.032107328042560175, 0.05508207393491089, -0.19426713472227825, 0.056796568160628676, -0.03232668190430041, 0.12518640876949683, -0.0734519562144748, 0.010893380882045015, 0.05758042444640997, -0.041318866790320444, 0.12077411825904537, -0.008949634507745347], [-0.062465481644213096, 0.07636126140904345, -0.06346371126249106, -0.02627500525752575, -0.12592582945760125, -0.17656951407458246, 0.11979883716272652, -0.1486337486497141, 0.04176929049193329, 0.050026661611793165, -0.14917870376356496, 0.09399059829655038, -0.11989908048118787, -0.0060500869082577985, -0.0064626749248439825, 0.06979431111333073, -0.036655006025499745, -0.001227722284286722, 0.010881319671622383, -0.11143584726349713, 0.0891181985236737, -0.01700876338435342, -0.15094567782329973, 0.016095951010854904, -0.11499386003366405, -0.08796416749948525, 0.13225617462389802, 0.1377138999685658, -0.15079517336649442, -0.03018763665985786, -0.15928506252875932, 0.06311107001842209, 0.001375660718278589, 0.039676576759930256, -0.05116128867138089, -0.06074556594976981, -0.09869706440261573, -0.058720125730472056, -0.03873148627360667, 0.27889599083973476, -0.031623122732738075, 0.13804700289318564, 0.08899304165700608, 0.10798863652206304, -0.13840474123172963, 0.0376500215128051, -0.1700797864092078, -0.0811393252320828, -0.029545708937787272, -0.04987506590299376, -0.12777179655415474, 0.02741884124158329, -0.026482728546307975, -0.07275495683492673, -0.1217211831260434, -0.06801072436385189, 0.1383266081430099, -0.10266905045630662, 0.015529808758093146, -0.015382819821192602, -0.08885641830471638, -0.1013348057836753, -0.1014600134342908, -0.06843467512496135, 0.04165379536808571, 0.11727520934432321, -0.05186956746583007, -0.1991781810694881, -0.11505477814434457, 0.01832255068850583, 0.0068934394707593485, -0.05156404997381632, -0.11520763307850251, -0.11340067914368944, 0.08911303034255655, 0.09067109389535186, 0.0784274491887373, -0.18108665412135974, 0.0022080907367376993, 0.1426248103717124, -0.06350737529845177, -0.042703692188892826, -0.024789896313178114, 0.10233065371795282, -0.04910152334140306, -0.12693051067102243, -0.05779363715331199, 0.15009442367798334, -0.09572884835739093, 0.100422084483269, 0.20036230290342932, -0.16397081795382254, 0.2297947957628004, 0.21046013846751274, -0.014787197862405684, -0.015539425315482728, 0.04980330028095355, -0.06565238286582473, -0.014231807847198436, 0.07334472810416982, -0.0032759183958202772, 0.06162107234216473, -0.32411819955356336, 0.14245517885728226, 0.10704598751787756, -0.06156125897400346, -0.19295374369210858, -0.13128874764463333, -0.060568849612983866, -0.1351349861605504, -0.021544585712167753, -0.012072199216041808, -0.1603111398243791, 0.03245100961504669, 0.03834509061627137, 0.012585066406253178, -0.052949924693706026, 0.07217634887024874, -0.11626795787620624, 0.06521993037738542, 0.008168317167131987, -0.18366163620199732, -0.0744098395871791, -0.20277984359157777, -0.01487055447282481, 0.0446219048989828, 0.005189400923186403, 0.003930643570240619], [0.020008831600287692, -0.03326060134050595, 0.007194327073031798, -0.2147022111191511, 0.0168423838122132, 0.05487785834588529, -0.014734646296792506, -0.11744579747264612, 0.07951188158877943, -0.03965527008849828, -0.0703248914064959, 0.02705593420045156, 0.1493127468082113, -0.16545798134801581, 0.018539510008040105, -0.11915291501491937, 0.1665076356612411, -0.022568940329708242, 0.045411522483997956, 0.03391430109528161, 0.06879988062157372, -0.021498802439210585, -0.1586776030279892, 0.08848588369194589, 0.07400190275396783, -0.037401309030691464, -0.03687197945638242, 0.060835872648571224, -0.12481745176403056, 0.04039682646147648, 0.20968111752840674, -0.06457996143918923, -0.09298246351265706, 0.2134880764744204, 0.12836198555731598, 0.02265354800827427, 0.19125507789842358, -0.07309771729053618, -0.0749851637486664, -0.06383230989649402, -0.02661959023652467, 0.03187797776270715, 0.12754163033137697, -0.05684102046730491, 0.15279238193917563, 0.03932767452754842, -0.1329981362618931, -0.06702551654882824, -0.09154585393591576, -0.05205659027116902, 0.06804113403402404, 0.16227536521418748, 0.013796152466376202, 0.03768931561357766, 0.12427394397819078, -0.15777568852027854, 0.027193910111583522, -0.024189425725054767, -0.04372020532964112, 0.09207077598140771, -0.06873481128296652, -0.015510947872599145, -0.09417566309257991, -0.00847565945494163, 0.11661141519694673, 0.0323133174731142, -0.045188399362309915, -0.12236031444866549, 0.10210736675572198, -0.15541766305746585, 0.09518329659676449, -0.060722307218660336, -0.1432047353295996, -0.033834172708114334, 0.14360559678134988, 0.03203146093453543, -0.028177656066202622, 0.0071302135752054786, -0.05822449554948668, 0.00801253263420751, 0.08380103388709352, 0.14434524789597275, -0.11515295534633883, 0.10672887179546241, -0.04549903792957541, 0.10562249080689116, -0.145761752808791, -0.1265646453004496, 0.08187072747625737, 0.16386093101597482, -0.10103888289203297, -0.042995631110917164, 0.054498620645345365, -0.19518951740351295, -0.03148501675302048, -0.1001544829463849, 0.020285616759706103, -0.04744508780423635, -0.13405757411462385, 0.016612865429961383, -0.05332701143054183, -0.09790496681793535, -0.05117308435987433, 0.07677274673218451, 0.015573823516691742, 0.017324546856672656, -0.2082860045890496, 0.12025929275269377, 0.04077258018217921, 0.06736504493054767, -0.04091122394121866, 0.029527507487322763, -0.21149987921954566, 0.03128695598674513, -0.008326213559213319, 0.010775630648720197, -0.030498751483817605, -0.03682597677429272, 0.16573286779827467, -0.09796304705873485, -0.13279393525294655, -0.21762970593197373, 0.30985189442974254, 0.026538213698736345, -0.03034068387052533, 0.09512796241456441, 0.05286199269087254, -0.09679349659149752], [-0.003054532689943329, 0.008357237424730594, -0.0008919746280513342, -0.06537597241114658, -0.015522423455661311, 0.039120358401615325, 0.10864900067034206, -0.0675803248205261, 0.24425339283168337, -0.07531601122457614, 0.08014722868059189, -0.12218929067489066, 0.07683503071459218, 0.042323004021126674, -0.1433006751088587, 0.08811108312629531, 0.10604197554454449, -0.05317255992774527, 0.00708107531752635, -0.20207714291571466, 0.15714668126324727, 0.048175183030035845, -0.07916073955860363, -0.021289285261559182, -0.0370637451385085, 0.1094896608704158, -0.11141246493703202, -0.11159823810473261, 0.039691056684402086, -0.028365516553405138, 0.08712773396441996, 0.10324275519905039, -0.1274655848619867, -0.0007712482954209824, 0.09840985309270724, -0.14113436739738025, -0.04463136492611373, -0.04951696440486106, 0.06918142162978656, -0.020626425960821086, 0.0223754483278869, -0.04490218954453401, 0.004981171043680075, -0.026677867154010472, 0.20673341304938417, -0.05917893421492253, 0.23879350603934757, -0.08048875362299983, 0.019146433279546883, 0.021811453812249287, -0.07870242269655275, 0.08982314813391204, -0.13544365643515946, 0.07484651558126798, 0.11160215172803302, 0.13718427586000223, 0.10592712387730814, -0.05078780601221551, 0.07624621159134617, 0.08674473732156751, 0.12430448207390918, -0.07559876738670387, 0.004574788520269606, -0.02047784239089012, 0.2575311513626212, -0.052761030466338614, 0.10803794549562462, -0.03002905312274472, 0.0800410369871633, 0.012425414349001126, 0.12566626909768944, 0.022528872836370693, -0.10150496487918452, 0.044011969594704166, 0.021321045758527522, -0.09021720235318505, -0.12671225710475903, 0.020717806689404133, 0.1708533167119365, -0.037548785655131166, -0.03460665920585356, -0.09832598804296022, -0.29197901477123794, 0.07969008286576712, 0.06196718245819037, -0.027868856798486275, 0.046696464781187275, 0.026098701942675443, -0.19836421054689446, 0.07177267015809397, -0.055670122141242256, -0.03441863093471617, 0.038542714821957626, -0.08903068653162369, -0.022540451372111265, -0.07194789730147017, 0.010953039606839299, -0.04366543371723931, -0.06777331145796198, -0.11201699094203545, 0.01682328913166487, -0.09697301195638014, -0.0914671762580194, -0.0016897690572657584, -0.005763154471254637, -0.10203612075796457, -0.22534321157563858, 0.21859536380212075, -0.09185986281501593, -0.1619287594446249, 0.021610419117387165, 0.08181360886628095, 0.07232230705804646, 0.09094219147446188, -0.015195829291414149, -0.031948797857191416, 0.06742111606480959, -0.026465309919282125, 0.01595161998804838, 0.0016640362174495976, 0.0931120477008466, -0.08925971243442382, -0.10378198332437955, 0.032526380398334734, -0.09244959329940541, -0.03230077683904789, -0.03193937481159701, -0.0986145074204783], [-0.12644676896516602, 0.14472129581448945, 0.10804108210438827, -0.005645350947927565, -0.06676308271202636, 0.058815942914437265, -0.07641838329880099, -0.03191147469943437, 0.05717541866482704, 0.04362204634309235, -0.2494204035617143, 0.1604383869525478, 0.012870363674414695, -0.09524563971490187, 0.07323855367298451, 0.09035706660185025, -0.10086740057902234, 0.020863520267071133, -0.020485285967209655, -0.0015158760930313385, -0.1318932592066862, -0.0952674995669456, 0.2644773533415096, -0.17457665283332804, -0.005704295225604027, 0.05134298431363011, 0.0013446452857328582, -0.03682422940267241, 0.19471351459157088, 0.15907132196740184, -0.04431616965318061, 0.1215499605136554, -0.1700075206795207, -0.2586455498264719, 0.0140370117772671, 0.16161937009275862, 0.0020656938494484738, 0.008241279007109487, 0.04338473975874469, 0.042511512556087754, -0.08544043846596161, -0.053935577527355096, 0.06770231840238991, 0.0368051122894326, -0.05498386679981215, 0.07043968240495732, -0.09989580623777286, 0.08939388327529121, -0.028591964273246475, 0.058305427462339944, -0.08724626873092567, -0.027250370708126775, -0.12645557167827065, 0.13044722362664177, 0.03909714914587864, -0.01731635983984574, -0.0024936454565713966, -0.1450310838414954, -0.14941378404410413, 0.12947772856843784, -0.0004211900616724776, 0.0035141546164437105, 0.019923612995489153, 0.00447995794028253, 0.08632211071803003, 0.07061701792735628, -0.037951021104491084, -0.08737441048624277, 0.034932784676824986, -0.02928344224922818, -0.17835961563140865, -0.13837557697721006, 0.11096250629855335, -0.026679008608223368, 0.013625579785084817, 0.09777995634279416, -0.10116048398207136, 0.10499154848422872, 0.06815303690320249, -0.07244458841385305, 0.053427133902812625, 0.0956427155007629, 0.1516998902351095, 0.170339515478457, 0.1121106923178508, 0.024321925074853208, -0.03643586241427242, -0.006314651031489117, 0.08365283422233416, -0.06165776294984808, 0.008115878657071036, -0.21591024378068327, 0.15533031007939668, -0.021516056499128716, -0.13781121695751014, -0.10071952447560921, -0.13446369206556283, -0.08736305136810445, -0.05057940605275983, 0.03076523099334183, -0.07251367863206203, -0.036111463929781956, -0.021582321530523967, 0.07107316983973837, -0.04089147854556241, -0.1722297727766224, -0.1101207201266606, 0.068313837495172, 0.04859646450060785, -0.07913108377902103, 0.08197861973898929, -0.05676503962430902, 0.04078524508929526, 0.019516730778707324, 0.00679942605772964, -0.09571504010183288, -0.022419309592106276, -0.06045533361689768, 0.032594454852678006, 0.08040279657253106, -0.14131166939076942, -0.12586933383370216, -0.010311210363690336, 0.06087604938785245, -0.08325070167093214, 0.24831371419706555, 0.24920299971951737, 0.04094784990302519], [0.09467842265784261, 0.08165022786738492, 0.04646432749633842, 0.074813096743473, 0.03974416111661631, -0.09612543598586147, -0.04578308835402475, 0.08194955279828911, 0.11904044821840448, 0.11943978954836391, 0.010205932062337383, -0.009738035963568339, -0.020686260549449068, 0.18797548636541275, -0.02704571342452215, -0.013945016514815266, 0.14433869121588214, -0.0656627330666971, -0.056675077470473574, -0.05941808801949208, -0.15090150612596304, 0.07931745368957682, -0.07274255643578145, 0.18726397602184802, 0.1652030595186034, 0.06591847348906003, 0.15435793652331917, 0.07312401874724389, -0.12502618146206904, -0.00637192516406145, -0.037373874845073395, -0.026794432410139388, -0.16966749738822703, 0.06120489736079999, -0.09713438751099324, 0.0824952470583651, -0.0658278376957041, -0.10700117900857414, 0.12120884002528329, 0.03864656503249126, -0.028599877632049683, -0.07923270611202206, -0.03823836061821213, -0.1961320986903748, 0.01105815685192688, 0.023052742465281672, 0.14341963106714695, 0.08809644628927303, 0.021153804564123496, 0.04091597284984513, 0.10976093041447006, 0.15400923744118145, -0.08313918980207459, 0.16237690848213937, 0.030918155977156518, -0.022645665674025036, 0.2006416173624664, 0.0044068938408570605, -0.14047478052413945, 0.043932791804596964, -0.11158869561231438, -0.09616214449421748, -0.07915029220055113, -0.028858721861564875, 0.05452065338208301, 0.045521036562895946, -0.142474459231711, 0.18987080001847692, 0.2197133771402508, 0.0981394284239059, -0.2584300229914051, -0.07907888451959026, -0.15118620482180858, 0.1051347364301094, 0.07397248003294907, 0.02060081778674401, -0.06451075546761355, -0.16377066098435353, -0.10890329704537978, 0.08601604987350929, 0.015234705517477902, 0.04632490414401468, 0.1116196232357857, 0.002443747793771585, 0.10865715474557255, -0.019996790410786447, 0.009928109830016015, -0.12855562921843092, -0.08551703300167489, 0.0002606761890748227, -0.07357532205185355, -0.08449239810668967, 0.09937574874751849, 0.006471253722548538, -0.08735206934752653, -0.021845583243370822, -0.04934809511661118, 0.03571637468539828, 0.07949605116533917, 0.04828682587306061, 0.10833250911588398, -0.08343394646057875, 0.052977793746137154, 0.17536161893391458, 0.06857894353964715, -0.15548993240020756, -0.02105569505678869, -0.00937466313770198, -0.13487432493034218, -0.04803543379247413, 0.026730591382514733, 0.010538167794037743, -0.04845366993642229, 0.16356307275790738, 0.03912987476091111, 0.030288448275866756, -0.010539882382386036, -0.13000179133340323, 0.009286228059796515, 0.05364738614267818, 0.1458457234553867, 0.2284113535673039, 0.13868885084481308, 0.04398902453626906, -0.08345660769819013, -0.2314082088998095, 0.07027445809016777, 0.06542907661434319], [0.019101537334569256, -0.045331210190003024, -0.1048387371301836, 0.007287596537789894, -0.19196356037211046, 0.02260238566790107, -0.01442786315418672, 0.00922577518509751, -0.11295052421723256, -0.07135331264001323, 0.04355135937551766, 0.0051028349598105215, -0.19069894431684936, 0.0027297609559447235, 0.06522115123217515, 0.1309212569588204, 0.06978438642553675, -0.054854369737361276, 0.08085381653416268, 0.04249920103423471, 0.026224865941915, 0.08803242611000789, 0.05399284329671329, -0.003597971670943864, -0.06435160330026475, -0.183416056095607, 0.014589874976973503, 0.15052080099743476, -0.015986137443761615, -0.027607384913424262, 0.10194430481108811, -0.07233876168599533, -0.14476838021836344, -0.17946630513684259, -0.12094222102519221, 0.003671997326130531, -0.029290704791665057, -0.007469462189216122, 0.034778653895099994, 0.009288181838568488, -0.0769228700704461, -0.002028717043738604, 0.08196488879155595, 0.02484626465995979, -0.19292301865090647, -0.29176160156859005, -0.0005726244421948359, -0.09029548977414631, -0.048722590909186445, -0.09580029713751712, -0.05229906857844715, 0.06014512704488953, -0.042604969768621034, -0.04111662190128558, 0.06989245003468927, -0.0884132473649798, 0.05066713046165607, 0.011431564442628227, -0.04504171160760878, 0.033792530068460065, 0.05743674417779357, 0.21588692788338662, 0.013639691061087492, -0.0008238785744102376, 0.16787294971037015, 0.11533753595227642, 0.050342907640566134, -0.002643352533349502, 0.1532335392033735, -0.16949710066384047, 0.2160773204814894, -0.056198861034438566, 0.018309927917361257, -0.10488159405696672, 0.02234785764197902, 0.03653307808296254, -0.08086339821752273, -0.15401221651565639, 0.07782068011124475, -0.09350873430983177, 0.20713342224340361, -0.19767384741264296, -0.15629604254745935, -0.01772767430081171, 0.06661524587079361, -0.16457197564345102, 0.06150888489353353, 0.0212036626947557, 0.06826591141572895, -0.07377566271556046, 0.054271965552572056, 0.13029210142085076, -0.11535087478505186, -0.13512900492733285, 0.0602993563982063, 0.08034256934843896, 0.08352601215280196, 0.007459800325736281, 0.07869947502091128, 0.09795569515091473, -0.12915963827150911, -0.07523719068866763, 0.01989080518185042, -0.09860313539626667, 0.117332048088508, 0.02644612480762255, 0.14015911126604141, 0.19957575309084868, -0.026433398716516208, 0.02158979834268318, -0.016268379188706494, -0.060215570069726075, -0.009352458662347924, -0.09056875084469385, -0.03293523415803973, 0.12352827433716271, 0.008796726998537542, -0.09061543940148853, 0.149172654050364, 0.053986430789143745, -0.10345597394284169, 0.04191065513424103, 0.0014356695687605201, 0.09895166051778359, -0.11425156099438312, 0.051680269555079615, -0.08695182746526442, -0.11252249924725129], [0.021428399918384387, 0.15024202390596098, -0.06906230320007169, 0.18365907919079563, -0.177646787990409, 0.07556466336404685, 0.04407001526796321, 0.13705101058967842, -0.20589359827662818, 0.23227274116991475, -0.07363552435506679, 0.03293867180538327, 0.12958024103044768, -0.0005722528793728158, -0.03503716498882177, 0.06268156656307221, 0.0617111825573308, 0.025806228098375066, 0.20171803856081574, -0.09534847026973974, 0.19612141534692104, 0.0894571512715074, 0.11642539747114493, -0.10065442366062896, -0.10826888797643272, -0.1256849796115743, -0.03595687811869288, 0.08856996173231908, -0.19051330235449138, -0.023928347246586656, -0.09460227139737296, 0.05458533440746664, 0.10029149886701838, 0.2009372624336164, 0.10267189118847556, 0.078635884669064, 0.04007388950300542, -0.12892368525467668, 0.05803550713405651, 0.04032644115733895, -0.03149039705233457, 0.022213849180612862, 0.13516831010685182, 0.11014967221699591, 0.10938941522919982, -0.03688815771056337, 0.009537023040685362, -0.17038347877794136, -0.0677380769368941, -0.008852066517001718, 0.017073140710389546, -0.1626290122129401, -0.15099370733147766, 0.008252464031740625, 0.0029128593825596713, -0.039707227153956186, -0.1434553460755628, 0.037381413202498895, -0.05425655552344941, -0.08021440742789958, 0.1282123424742634, 0.028373999639804283, -0.016824493896120434, -0.13367380826164865, 0.04493600325122902, 0.11539911943736698, 0.1261215324333136, 0.11468535851995469, -0.04445781946890613, -0.052877713183449915, 0.09430854216159981, -0.09413225956695861, -0.012747941956142093, -0.14214105799494117, 0.1338914065910558, 0.028313082126447408, -0.004979820242646576, -0.10031504346473304, 0.09513901574416633, 0.14361546080914492, -0.021290657251804814, 0.028797820310189272, -0.058217499259168026, -0.08533607839588901, 0.025743376302629507, -0.05136326470234058, -0.12295878763090176, 0.08587807391847126, 0.04962345577643974, -0.10526946784937023, -0.04597331901456913, 0.006508955261051009, 0.00158109752772038, -0.11639484390735523, 0.03025225911953478, 0.05372974695381127, -0.010794044321162186, -0.044117428453439515, -0.0394950610174201, 0.1982060855105689, -0.02486704755145537, 0.29959413359296316, 0.03675155883025589, 0.10830931875805543, -0.07800072992106778, 0.2583507890995656, -0.04532129924036303, -0.03364172719613923, -0.07751932279045264, 0.06701117275481375, 0.04398593542962478, 0.0766387239845242, -0.04439313423463454, -0.13080888556280212, -0.12216213294115844, 0.10344941070523776, -0.02581476600188372, 0.0767624526785303, 0.14099935782883893, 0.018440098668594532, 0.06514796822701899, 0.10778933053825264, -0.007733877552175304, -0.18414463514454413, -0.15054979842157237, 0.054189289003078504, 0.22316975242233128, -0.058691802253227676], [0.1473637773933259, 0.01393569568186634, -0.13482692077891495, -0.006142315184464327, -0.07747170954264636, -0.09772114575233774, 0.05758726179507916, -0.17454106209221396, -0.1181417351022843, 0.07599137830087431, -0.1588071071505159, -0.054839823570388344, 0.0398233184871623, 0.18638505957817753, -0.07278000459926882, -0.1779886660701006, -0.12962797698925108, 0.006840085929912584, 0.1388602460199257, 0.16635695990960175, 0.0740865174447361, 0.18071633577291057, 0.007700702159120851, -0.12402568521196713, -0.08422273121537517, -0.013243584593826218, -0.06034958552431382, -0.09198446197994414, 0.08237281571788467, 0.06706063055955842, 0.050059143094309436, 0.15916010655259666, -0.16506818974724313, 0.149038274536357, 0.015021808532624525, -0.14218498435828195, -0.0958330352936562, -0.008050204891877572, -0.014460558664326651, -0.07959609370409068, -0.0008867171947212012, -0.061099405001366694, 0.051829185042038386, 0.11800139872749782, -0.0004957363193028805, -0.09317621464787108, -0.14611344787285402, 0.08645480138627369, 0.1036267815153089, 0.11647899774113435, 0.1609114906642868, 0.01225162591057845, -0.0025684767839811986, -0.07702664751432624, 0.08112969781575423, 0.03787208788461633, 0.07688420398217086, 0.20476038051156892, -0.10278485704631796, -0.12747353286259305, -0.15127906364796256, -0.05870236012443, -0.009445930759327457, 0.06878365556038907, 0.08599893281901383, 0.1291573269349105, -0.0967316426405129, -0.21599562036947542, -0.0005330685259734716, -0.0862284117175705, 0.034660945191381486, -0.1239283211333774, 0.010012166681404325, 0.015876603316285095, 0.15087202712506476, -0.05952459646962994, -0.10447097844312865, -0.10336245134590188, -0.0894179779987583, -0.07086979838005107, -0.009757725813504668, 0.16623703451292687, 0.1541194836122056, 0.19510839540509636, 0.001408650640163313, 0.1578338437671932, -0.16585641852678584, 0.3397033019515052, -0.03806491528381421, 0.013106861291721927, -0.06105762211226609, -0.05745509911129231, 0.1139508116724723, -0.16279454799729717, 0.10492281696467984, 0.061820799080360804, -0.0778559707533883, -0.019878750794211898, -0.04240632303674032, 0.2646828375033929, 0.15651248633660597, -0.1720861438952766, -0.04754903997159676, -0.07443416085874281, 0.08671949119494982, -0.014120000016715619, 0.042903390056101234, 0.012654498950802487, -0.06181047157539748, 0.03307629317483634, -0.06592882995254468, -0.007140238719226717, -0.05646042049505306, -0.05644454850750565, -0.029040429952378925, 0.04965117027183874, 0.08201973281142422, -0.03346899689387554, -0.04432280534162795, 0.00013890209667860216, 0.021861939698796042, 0.0469341033171456, -0.14041652491682652, 0.17032011311268422, 0.07055462571800909, -0.05856584823902039, -0.05853709307605204, -0.052090172419869255], [-0.04831197641792822, -0.005489701124162164, -0.0637380275182254, 0.09011901888357553, 